572 128
360 -0.2423853 0.1868237 0.41438335 0.044024725 -0.037436858 -0.16433577 -0.040058285 0.12275045 0.019135712 -0.2994264 -0.4298853 -0.29747683 -0.18013157 -0.00534872 0.21320088 -0.34191564 -0.07514709 0.12947764 -0.24127749 -0.06412032 0.016203593 0.010540692 0.05948044 -0.3464632 -0.02891384 -0.2797568 0.3037818 0.15388106 0.14298752 -0.030660568 -0.13964196 0.08406011 -0.036952123 0.054258637 0.321532 -0.13871433 -0.084937766 -0.15229622 0.29979596 -0.287432 -0.068167835 -0.18323363 -0.07565252 0.15553181 -0.4037083 -0.15716204 0.11825373 0.268304 -0.20754428 0.15827554 -0.143748 -0.16703928 0.04213826 -0.031148296 0.01980238 -0.117794044 -0.29413247 -0.06091111 -0.10590838 0.1437988 0.21295975 0.12401725 0.091509424 -0.03646565 -0.0040717917 0.1801174 -0.06722615 0.18502474 0.31306383 -0.13829947 0.15289448 0.07703233 -0.4861924 -0.30485722 -0.21546373 -0.067358755 0.37617704 -0.033807583 0.08578338 -0.18898371 0.22958903 0.001715524 0.015662305 -0.052144744 0.041211955 0.12861615 0.2891934 0.05264044 -0.26489216 0.16474074 -0.10935018 -0.023467077 -0.009723564 0.033913888 0.40955594 0.17127763 0.25084904 -0.19689363 -0.06957193 0.20525189 -0.1931679 0.2645361 0.036864165 0.22281891 -0.13789044 0.06168677 0.064542286 -0.14739698 -0.5588668 -0.039378095 -0.091590576 -0.08886836 -0.16957425 -0.26235747 0.07167638 0.13289708 0.16165142 -0.040264104 0.13041514 0.118836805 -0.0344525 0.1519656 -0.22603033 -0.06741362 -0.115257055 -0.2332788 -0.04301123 -0.20191114
289 -0.20093367 0.09046095 0.0203131 -0.0023694616 -0.18314229 -0.2751832 -0.05884851 0.01458452 0.08426947 -0.11279204 -0.08557941 -0.18411039 -0.010038926 0.0317805 -0.10359899 -0.024032705 -0.08878789 -0.11467781 -0.035013385 0.039285805 -0.037659727 0.005103924 -0.21894595 -0.24606839 0.020579359 -0.31593612 0.21651584 -0.28492132 0.074453145 0.076987185 0.006119698 -0.111466944 -0.06063168 0.11121599 -0.031576656 -0.16572988 0.04256914 -0.09358819 0.2009893 -0.1920545 -0.092624426 -0.091327995 -0.03665425 0.06341681 0.0021293783 -0.16816974 0.094027236 -0.05684971 0.025466528 -0.072102174 0.038716707 -0.1742141 0.1774996 -0.059030864 -0.106044374 0.046042327 -0.06267587 0.24311987 0.14592461 -0.0371127 0.15270644 0.06944577 0.020557875 -0.10145157 -0.0312699 0.08888828 -0.20550989 0.22188233 -0.15879636 0.09984917 -0.10836429 0.10583416 -0.15597638 0.18861659 -0.038451076 0.10000578 0.03537746 0.03498592 0.030227298 -0.08778396 0.14025596 0.402665 0.06913029 -0.051732216 0.020315837 -0.13927613 -0.046738945 -0.084897555 0.028415566 0.12780909 0.11625079 -0.06937795 -0.12743089 -0.10865095 -0.015976168 0.2319359 0.14960226 -0.09131418 -0.033169 -0.14623953 0.15671316 -0.042470388 0.031257026 0.042605434 -0.18376982 -0.1501349 -0.19212995 0.31001285 -0.12540527 0.2131749 0.16431125 -0.15651394 -0.046926927 -0.21214013 0.19178325 0.20654526 0.29413196 0.00073430047 0.09245278 0.19194123 0.08590533 0.082780324 0.096183434 0.0009920256 -0.02300642 0.116575375 -0.14451353 0.021528073
298 -0.06517794 0.25180194 -0.068553515 0.18563211 0.18079107 0.32974097 0.22510904 -0.030096957 0.16730316 -0.0601328 0.2912145 0.020167552 0.15435138 -0.16185011 0.032213707 0.05030613 0.042907692 0.20840788 -0.43519258 0.09140975 -0.07549512 0.005472323 0.122922525 0.032240693 0.11002028 -0.11435904 -0.07221807 -0.39748803 0.063041694 -0.569532 0.10507506 0.1100737 -0.14623742 0.09366497 0.36371693 0.14928572 0.15858787 0.23429476 0.048516523 0.0064848834 0.041951984 -0.18084891 -0.12744394 0.13194793 0.04342007 0.051704116 -0.08024284 0.017566282 -0.112301275 -0.17291492 -0.08918943 -0.050675698 0.0043976777 -0.005406517 0.05605375 -0.119294114 -0.14140137 -0.20127599 0.18986893 0.07445685 0.07719438 0.25580776 0.05269017 -0.037861086 0.08369984 0.2549519 -0.07081106 -0.008531526 -0.04960436 0.48697418 0.12170974 -0.24433233 0.122681245 0.13500068 0.061192874 0.31350252 0.133832 -0.16725291 -0.0087021515 0.16920564 0.12926693 0.2890376 -0.14876768 -0.12427981 -0.14858454 -0.1496826 0.15047616 -0.29269534 0.086486936 0.35305363 0.16461469 -0.24685648 -0.114738084 -0.11525303 0.24105732 0.10690944 0.12114375 0.011848257 -0.4288074 -0.152067 -0.19384673 0.0016319568 0.03065747 0.3527992 0.11488334 0.23024571 0.2431014 -0.034462932 -0.27823737 0.026311722 0.04053909 -0.30826974 -0.14872843 -0.19013636 0.35287997 0.19264989 0.3352996 0.18714477 0.039092373 0.010036661 -0.1894068 -0.06840809 -0.031916834 0.038073882 0.20954171 -0.042706087 -0.18376398 -0.09278474
529 0.24951148 0.22873946 0.4534643 -0.08462219 -0.078872554 0.06521844 -0.040506106 -0.28977823 0.28088057 -0.33601362 -0.44281247 -0.36249346 -0.14576486 -0.034804523 0.115621775 -0.20889252 -0.07432475 -0.10574158 -0.39181387 0.039372396 0.39968196 0.14788361 -0.10125402 -0.25841373 0.122507215 -0.46523568 -0.1080197 -0.22789958 -0.18909973 -0.21067311 -0.01664098 0.11370402 -0.020467803 0.2984384 0.21104546 0.04419291 0.009522028 0.3375185 0.12294815 0.092103764 0.26680604 -0.44333023 -0.08293986 -0.093595065 -0.3172919 0.25349614 0.13758451 -0.04360498 -0.055553295 -0.01116019 -0.08552271 -0.144405 0.006051827 -0.12981084 0.070571974 -0.19779389 -0.15831117 -0.03215814 0.005802734 0.0039990963 0.1083683 -0.10232223 0.24383429 -0.0129464725 -0.11977437 0.45447567 -0.06907918 -0.004268341 -0.10587457 0.2596506 0.083045386 0.17407776 0.19224323 0.024843393 -0.2799998 -0.17328632 0.04171067 0.065939166 0.31905147 -0.112614766 0.43827072 0.10519199 -0.03166288 -0.077323355 -0.014098231 -0.12589855 0.020348359 0.13037004 0.015447782 0.15687324 -0.20820296 -0.27343047 -0.23041445 0.12197974 0.06666555 0.34075657 0.17153676 -0.13139635 -0.11717401 -0.08188841 0.17984056 0.19511767 -0.08834017 -0.04254832 -0.17256366 -0.072618514 -0.09687797 -0.09226725 -0.21160734 0.09218558 0.024744937 -0.65976447 -0.31372917 0.113087 -0.06541443 0.12585394 -0.26745948 -0.018530466 -0.1608253 0.08630322 -0.020565107 0.114256725 -0.29070807 0.09721981 0.076890945 -0.043547172 0.18812075 0.17674981
205 0.0133284805 -0.35460234 0.05619842 0.057536434 -0.081673294 -0.24939725 -0.29976037 0.15309776 0.14062248 0.2244096 0.19352326 0.45847514 -0.14972313 -0.029612925 0.20362894 0.21960667 -0.0703261 0.19704063 -0.258324 -0.22001126 0.3217663 -0.029339997 -0.06578264 -0.16811378 0.18158066 -0.37801215 0.10269945 -0.049511965 -0.12860057 0.17742339 -0.1213564 0.1393865 -0.1060632 -0.07893776 -0.19314891 -0.032577988 -0.15119007 0.08704834 -0.045134883 -0.39975634 -0.23747501 0.008710299 -0.09480135 0.327573 -0.051562417 -0.026629614 0.101848066 -0.024094855 -0.32057053 0.1680126 -0.063384004 0.22303489 0.07235894 -0.03298894 0.045976862 0.2624915 0.03684619 0.03697168 -0.0108877495 -0.26962093 0.03137382 0.20322494 -0.104586035 0.24033251 -0.1268429 -0.18649906 -0.28679922 0.14622355 0.27907732 -0.24646384 -0.27237198 0.29557464 -0.27155572 -0.13431942 0.04610144 0.16005605 -0.24213617 0.070155345 -0.13817328 -0.3061521 -0.14110881 0.16668954 0.12122573 -0.08189547 -0.21524058 0.22374986 -0.13229655 -0.22365087 -0.034873106 -0.06606983 -0.06313225 -0.24702685 0.16604733 0.17246191 0.17130925 0.04183157 -0.0698039 -0.09513029 0.16761276 0.11778466 -0.38594064 0.32546526 0.030091057 0.17202945 -0.12010722 -0.21855763 0.10451024 0.21570599 -0.43288 0.15171035 -0.025742408 -0.36723033 -0.14276817 -0.18728036 0.26286113 0.43091556 0.42876655 0.027175698 -0.010571498 0.13481472 0.049690258 0.06230188 0.16726592 0.20307486 0.25640324 0.36014485 -0.4176179 -0.19615407
82 -0.23795587 0.113080636 -0.0681053 0.061725277 0.30179384 -0.10605659 0.043760467 -0.29228944 -0.061139736 -0.10463495 0.07420192 -0.0025275182 -0.0021653182 -0.1192785 0.018810198 -0.1796509 -0.21843274 0.015872352 -0.07776673 0.08038838 0.24052836 0.0121827265 0.024622727 -0.02430794 0.11289068 0.07331874 -0.13062572 -0.11740752 0.091784835 0.13759507 0.123810105 0.13008118 0.11019161 0.24931678 -0.116238676 -0.07546716 0.12290847 0.032971893 0.052513234 -0.23052642 0.008401809 -0.06571944 0.024237612 0.1819935 0.020597083 -0.110747166 0.055504564 0.052397225 0.11146416 0.23817448 -0.08018615 -0.050417777 0.18839945 -0.03529818 -0.18520688 -0.14538957 -0.13622396 0.2409835 0.25714654 0.02945427 0.29844287 -0.061415426 -0.11182196 -0.07918098 0.13907722 0.19852184 0.090505816 -0.22834522 -0.016344162 -0.01585607 -0.14090045 0.062327206 0.051222898 0.2204217 -0.09971934 0.25522956 -0.010762433 -0.14446136 -0.009919867 0.07468203 -0.034588188 0.21156561 -0.019141808 0.041845277 -0.022954341 -0.11441485 0.12112948 -0.1401509 0.062381163 -0.12525375 0.003468291 -0.08839216 -0.20848382 0.21159476 0.089854315 0.21031122 0.09355808 0.0021797998 0.007197453 0.018224834 0.08141786 0.26725093 0.019841915 0.0742405 0.090349324 0.033307396 0.041556265 0.22287767 -0.0424971 -0.05739903 0.21517561 -0.27728775 -0.24897374 -0.14553683 0.094879836 0.2287999 0.23910646 -0.06592682 0.24133074 0.13713194 -0.14894706 0.010071336 -0.2627814 -0.27606112 -0.07375367 0.16542837 -0.2782081 0.08276163
143 -0.17871866 0.32722488 -0.10875561 0.15839337 -0.11541582 -0.5091812 -0.25552163 0.0017714747 -0.2593008 -0.24161701 -0.38638735 -0.030323714 0.027891327 -0.2751991 -0.08060994 -0.17355424 -0.2944217 -0.07746568 0.087688334 0.31297725 0.07837869 -0.18844767 -0.13881475 -0.38391852 0.40772158 -0.101685874 0.043693565 -0.058905117 -0.1286447 0.0007631078 -0.13462953 -0.042101853 0.09614756 0.2754578 0.12103729 0.053289283 -0.027302176 -0.039480194 -0.17221831 -0.16967644 0.07700524 -0.105965704 -0.1691498 -0.034300532 -0.07491656 -0.253358 0.17767294 0.012265124 0.10825015 0.0028891296 -0.13212878 0.053187367 -0.08806962 -0.20105936 0.06913453 0.09816704 0.06883649 0.23400782 0.19106695 0.29398307 0.040462293 -0.040686067 0.0029468688 0.14811294 0.17665654 0.17797914 0.014447078 0.12865715 0.008039487 0.10110392 0.06524025 0.0873212 0.05473092 -0.099546894 0.057396393 0.06734259 0.037108373 -0.07754466 0.06257536 0.08344628 0.06621179 -0.053183112 0.00746225 0.21701744 -0.037195478 -0.006196577 -0.19046563 -0.064066775 0.16203324 0.16667734 -0.13106835 0.097762346 0.016201891 -0.043764416 0.15589537 -0.047223277 0.119614966 -0.114868745 0.03259544 -0.10526794 -0.045806758 0.08506468 0.03207348 0.12606703 0.04898644 -0.03263447 -0.3129019 0.17716615 0.15958622 -0.102537446 0.094288446 0.054014795 -0.1917196 0.011226903 0.16407505 0.13255925 0.117810406 -0.09078742 0.07175839 0.109403916 -0.2264035 -0.21244085 0.103668615 -0.013369811 0.008653494 0.16481 -0.17528555 0.02975698
450 0.1664173 -0.14710885 -0.2645353 -0.30779356 -0.14168823 -0.35004225 0.007364465 -0.12181454 0.06114792 -0.13974036 -0.25671673 -0.16682102 -0.2846697 -0.23468196 0.26990777 0.19997175 -0.24416323 -0.08243082 -0.09869219 0.23366758 0.44246194 0.20425943 0.12140831 -0.115607426 0.33766967 0.16679014 0.2333492 -0.14712411 0.20445044 0.13892418 0.13446108 -0.056721676 0.30488262 0.029630303 0.25800613 -0.041568033 -0.2493162 -0.114725254 -0.0663451 -0.25002477 -0.039729062 -0.1636226 -0.057361525 0.3547258 -0.076499715 -0.1463725 0.15691575 -0.27474135 -0.14023635 -0.106157474 -0.027230319 0.059787355 0.31777397 -0.08652825 0.123036586 0.05245137 -0.078732185 0.16593313 0.17116714 0.27218935 -0.009806826 -0.19495393 -0.021847343 0.19665436 -0.08322375 -0.11462647 0.10832457 0.03218533 0.055304963 0.19147111 -0.20590974 -0.060013715 -0.23684698 -0.04308032 -0.15084408 0.41737083 0.0029252616 0.06147686 -0.04535203 0.14021643 0.26353547 0.2595199 0.28485817 0.23952292 -0.4417822 0.32097843 0.13062134 -0.16461155 -0.22463888 -0.14611004 0.004406248 -0.081509516 -0.17267592 0.11661308 -0.10659123 0.11048699 0.15738127 -0.061494395 -0.091826454 -0.25776267 -0.2929018 0.087235376 0.31652045 0.18868801 0.015018045 0.12275394 -0.12089237 -0.15400484 0.26051015 0.0759003 0.1893542 0.08050144 0.088186055 0.09870551 -0.14693421 -0.06289557 0.12163437 -0.18324463 -0.12968579 0.09375674 -0.16796844 -0.009487625 0.11329278 0.40829414 -0.005835911 0.108950816 -0.040063858 -0.15595688
20 0.0014506862 -0.09363093 -0.22358587 0.08110141 0.107413374 0.048812207 0.21169683 -0.030813524 -0.15482083 -0.054383654 -0.023395685 0.01867599 0.07224518 -0.1518452 0.116503075 0.11522285 -0.15674235 0.012115616 -0.16221529 0.024786962 -0.024633722 0.06437076 -0.08746464 -0.20509182 0.18968175 0.15451008 -0.13854662 -0.18939231 -0.039085057 0.07336263 -0.025298946 -0.19790708 0.0053700786 0.26355246 0.09779459 0.040818855 0.101501465 0.034796126 0.05657801 -0.07881769 -0.026298996 -0.22445285 -0.2177676 0.45647833 -0.26984918 -0.0375798 0.018389294 -0.08932154 -0.15960015 0.16597249 -0.16735324 -0.060229745 0.16543673 -0.06916589 0.08271769 -0.055683143 0.063006714 -0.007164727 0.039923232 0.024271779 0.09922927 -0.19814615 -0.07331788 0.11227809 -0.071700536 -0.22896583 -0.2235209 -0.16980991 -0.074537955 0.1456775 -0.13072608 0.27145296 -0.027859278 0.19043809 0.07788342 -0.06872687 0.14766403 0.05034706 0.027499372 0.09505886 -0.08858433 0.21357803 0.010837917 -0.1321853 -0.00018642482 0.08516445 0.06418567 -0.023981081 0.14421584 0.23525605 0.20353939 -0.17624223 -0.001430459 -0.09579231 -0.049640987 0.13545005 0.18892747 -0.23815057 -0.017319802 -0.025171781 0.07703945 0.249417 -0.07000093 0.19414629 0.022372244 0.15699908 -0.12258977 0.19018942 0.08612537 -0.03350496 0.08647131 -0.079398915 -0.3252725 -0.08496245 -0.046628315 0.21142766 0.18566808 0.06977214 0.11685842 0.106231615 -0.14532314 -0.033143938 -0.06957587 0.003951949 -0.13501021 -0.14248286 -0.011856833 0.067485906
290 0.11161325 0.19402485 -0.0031101943 0.006573343 -0.11798528 0.07180045 -0.23795824 -0.012043648 -0.14953147 -0.17867677 -0.084145136 -0.018401954 0.075574666 -0.17552549 -0.056115218 0.11223473 -0.05758552 0.010539907 -0.14582638 0.018598001 -0.19155307 0.20155731 0.09797674 -0.10045181 -0.0043993904 -0.07014051 -0.21703938 -0.16007358 -0.112204164 0.2515115 -0.003916309 0.09489527 -0.15942822 0.11563982 0.092233084 0.16989903 0.046148974 -0.041180115 0.005831488 0.13323829 0.14089385 0.05805828 -0.009918404 0.4018441 0.007662795 0.19350064 -0.07632118 -0.3141573 0.08077762 0.3234092 0.1298198 -0.009335186 -0.45155433 -0.05663045 -0.19582474 -0.18758194 0.018547267 0.10657772 0.18312503 0.09841153 0.08266776 -0.12405143 0.06972478 -0.09181302 -0.031008476 -0.16374895 0.24563597 -0.05549178 -0.004029854 0.15682876 -0.24792744 0.34082964 0.1026533 0.023601217 -0.014286841 -0.09643612 -0.0713784 -0.030378576 0.17781146 0.064972065 0.058562875 0.31821164 0.01755539 -0.3203388 0.0028358644 -0.009087622 -0.26865056 -0.05530255 -0.03976907 -0.10893845 -0.048920035 0.0877042 -0.3387313 -0.37097836 0.1409443 -0.062422615 0.30118293 -0.059531324 -0.13693497 -0.11982804 -0.19104758 0.101848006 0.017597286 0.118413135 0.47434166 -0.034515094 -0.113165386 0.09031562 -0.56156397 -0.09360035 0.19130842 -0.16556978 -0.19696638 -0.3141082 0.13463083 0.2517392 0.1269944 0.12985224 0.031369157 0.033203088 -0.1943986 0.14882174 -0.26410624 0.042547096 0.16246934 0.12942909 -0.330622 -0.1326364
198 -0.2605168 -0.19344237 -0.03233612 -0.2879369 0.02178155 -0.21904175 0.1277559 0.024519615 0.12909167 0.027213307 -0.2756349 0.0056561357 0.06652709 -0.05356518 0.03488269 -0.34859273 0.09498774 0.163063 -0.19422625 -0.13402155 -0.038619764 -0.048015196 0.027679667 -0.13937621 -0.07579225 -0.049169812 0.017243199 -0.05138762 -0.17326328 0.035693277 -0.12614338 0.2506529 0.016355136 0.049857393 0.17432398 0.040013827 -0.053228695 -0.035094902 -0.32192177 -0.062300164 -0.13230571 -0.41902322 -0.15579768 -0.06533075 -0.060549363 -0.029527951 -0.038162395 -0.067720756 0.061693765 0.07368579 -0.16894992 0.024267923 -0.08727709 0.04518163 -0.045244906 0.071124464 -0.23391636 0.11252986 0.32714728 0.1051663 -0.028825782 -0.08990351 0.20566896 0.20774396 -0.24068393 -0.07802024 -0.039046217 -0.04314302 0.23174015 0.05618858 -0.15864025 0.07259858 -0.18474469 0.13036254 0.1111745 0.05279235 -0.002544524 -0.07942633 0.06871266 -0.07013913 0.08202354 0.11514141 0.025064768 0.10190618 -0.14281604 0.19780348 -0.048984498 0.03737036 -0.253263 0.20863037 -0.0099381255 0.09610684 -0.13293542 -0.16211587 -0.13234809 0.27471158 0.003498004 -0.18403278 0.048175626 -0.19724631 -0.18868388 0.07932532 -0.09388962 0.080383524 -0.1384392 0.023262488 0.12697998 0.19200966 -0.22235078 0.23800802 0.31423905 -0.015337055 -0.09385148 -0.14214742 0.0065528695 0.26555383 0.24603197 0.0094173895 0.24177603 0.0067247143 -0.23237965 -0.13033128 0.28241137 -0.10206059 0.42522502 0.1836125 -0.22136559 -0.2063948
134 -0.12788731 0.009206578 -0.13496995 0.104944214 -0.079448715 -0.09646585 -0.013006987 0.036939718 -0.024647932 -0.03823826 0.0043606106 -0.20048544 -0.12424231 -0.1938154 0.10814261 -0.06284427 0.052646596 0.13224447 -0.2269219 0.26282984 -0.08636306 0.20229967 -0.08699232 -0.031371057 0.31546202 -0.15467416 0.049401894 -0.1443354 -0.022292228 -0.06686375 -0.0021790015 -0.07705987 0.24408942 0.055608846 0.034068864 -0.08928281 -0.07313671 0.036175676 0.07503557 0.12435716 0.16406019 -0.25573504 -0.13622674 0.19249555 0.15984444 -0.03863326 0.057559624 -0.18520384 0.088516735 -0.12653702 -0.30570662 -0.14893933 0.060779277 -0.0070403838 -0.17529355 -0.1698715 -0.004993455 -0.2735662 0.24218592 0.2311976 0.26786098 -0.18692875 -0.06848307 0.28271276 0.09585062 0.11693953 -0.029023407 -0.29218724 0.054897074 0.06576219 -0.04893374 -0.008757188 0.07613207 -0.034660034 0.015938211 0.20173724 0.0027619964 -0.011602852 -0.19553801 -0.010101893 0.03864238 -0.05119734 0.026215453 -0.12922889 -0.092071906 0.03647898 0.060752176 0.1249736 0.0018042043 0.034804948 0.23318306 0.17011216 -0.39470318 0.19817644 0.077152155 0.20790301 -0.010365522 0.02598219 -0.13551408 -0.39791223 -0.16723377 -0.046123724 -0.4246765 0.16046448 0.018935658 0.002477599 -0.03228176 0.30414927 -0.09586517 -0.166895 0.22912621 -0.010854816 -0.29205024 -0.10210035 0.3051448 0.3432352 0.1661463 0.09943439 0.21519604 -0.09906442 -0.25327206 -0.06385308 0.14762743 -0.18201636 -0.15142311 -0.034769442 -0.20618288 0.007748826
141 -0.25640598 -0.00081092014 0.29452395 -0.075216144 0.044799026 -0.2187943 -0.074248135 -0.2167241 -0.14070518 -0.07083888 -0.29287812 0.07502448 -0.10616326 0.03767143 0.091301225 -0.3609926 -0.07498921 0.11500437 0.08695706 0.010404464 -0.13707428 -0.061500076 0.10399456 -0.046795875 0.26587874 -0.16060932 0.07578092 -0.062438805 -0.09418091 0.058170393 0.29572827 -0.12046483 0.068850756 0.19167686 0.09589597 0.097433835 -0.028608195 0.20218368 -0.00913873 -0.021233413 0.00011978624 -0.1965497 0.1177762 0.35055023 -0.16111273 -0.0031393291 -0.104094714 0.17104359 0.12821357 -0.10753092 0.0501112 -0.04703218 0.21002178 -0.035616647 -0.011878355 -0.25699472 0.003321719 -0.18027446 0.040144403 0.072821274 -0.0072055273 -0.055172984 -0.34900093 0.27809307 0.14468248 0.095244035 -0.29581857 0.08625879 -0.3038173 0.07243587 -0.064043276 -0.1286672 0.14203794 0.18005493 0.13230985 0.11946917 0.24839698 -0.019784447 -0.08439627 -0.09429054 0.04038818 0.17573708 -0.026310889 -0.047709577 -0.18563811 0.3745474 0.13935089 -0.08491924 -0.2399824 -0.20520969 0.1891323 0.13787472 -0.0729471 0.19791555 0.094665036 0.1652953 0.14539328 -0.10961187 -0.07552477 -0.14758153 -0.11591436 0.19342068 -0.12134801 0.09901735 0.027432278 -0.07748814 -0.120880686 -0.038480934 -0.006088357 0.09419192 -0.08872335 -0.047029972 -0.11803273 -0.031703185 0.31905794 0.305478 0.16782215 -0.014677044 -0.072541125 0.022823628 -0.1762082 -0.12585329 0.0064725783 0.056421164 0.01542841 0.28103298 -0.16016422 0.16403058
229 -0.020477489 0.13288294 -0.13950269 0.05258122 0.09808418 0.12151262 -0.008820493 -0.08016981 -0.086474575 -0.21882108 0.09133643 0.023770697 -0.13667147 -0.41503662 0.16494375 0.12020558 -0.2560816 0.04605468 -0.31764194 0.046152398 0.38993654 -0.10115595 -0.04260138 -0.16865012 0.2679536 -0.13411912 0.08701575 -0.19940071 0.32695538 0.29089493 0.021667227 -0.047223605 0.28104502 -0.08775589 0.18717746 0.09640786 0.074223116 0.216253 -0.11339405 -0.06585312 -0.08977169 -0.09121184 -0.16968119 0.111017145 0.119559556 -0.2095092 0.08246396 -0.21688838 0.011271619 -0.07654531 0.036156744 -0.03230642 0.0033532819 0.018665994 0.06988671 -0.024228344 -0.04273001 0.25930172 0.058493447 -0.2397581 -0.029735269 -0.30118647 -0.22268866 -0.014320533 0.28080347 -0.2089464 0.04765304 -0.13279338 -0.10503879 0.3871659 0.1788195 0.1600692 0.09608306 0.09108517 0.021171352 0.42297113 -0.27086747 0.2731387 0.31406948 0.22637513 -0.12740172 0.21812403 0.15670018 0.15798579 0.094360344 0.09414995 -0.14363763 -0.14977781 -0.17234908 -0.18346497 -0.029358631 -0.051572002 -0.09061162 -0.03416726 0.0362269 0.14951834 -0.06340719 -0.08949297 -0.007625976 -0.37001505 -0.12383641 0.10400463 -0.1711814 -0.114134595 -0.19287384 -0.013843802 -0.061900925 0.15591075 0.074032195 -0.09263563 -0.02167306 -0.27676347 -0.04395719 0.052081272 0.12931386 0.248261 0.29072344 0.19572364 -0.2660064 0.060454667 -0.11368491 -0.07118276 -0.003369657 0.051070265 0.17236505 0.44105202 -0.10540817 0.08079512
77 -0.10827269 -0.1830548 0.040404275 0.039902046 0.03478948 -0.22919847 0.05248032 0.25071883 0.11432501 -0.0500267 -0.031440023 -0.24525845 -0.23798059 -0.26391557 0.014743228 -0.33240846 -0.12736213 0.2862094 0.0554566 -0.048039764 -0.054403983 0.1134588 0.42509276 -0.27497527 -0.094878845 0.13082902 0.060413998 -0.076245666 0.21505359 0.30003566 -0.19899797 0.059570268 0.22587009 0.31832778 0.36075258 -0.0027163106 -0.04306997 -0.22287881 0.09612147 0.023341922 -0.048275154 -0.13361081 -0.1230034 0.34563288 -0.11921511 0.11103996 0.14343344 -0.1790246 -0.3221932 0.26771703 -0.11220062 -0.39873847 0.041228395 -0.38708836 -0.043179158 -0.10205866 -0.06361011 0.07147739 -0.0056538912 -0.09640937 -0.017947672 0.054337256 0.2524561 -0.22611208 0.18984085 -0.02357543 -0.23791935 -0.13147417 -0.03157998 0.30400878 -0.3094854 -0.19451402 0.23339404 0.06457693 -0.06700508 0.29075754 0.123928346 0.304977 0.14563563 -0.0777395 0.28223795 0.23108847 -0.28260967 -0.16500024 -0.12073677 0.07935752 -0.14516681 -0.071838096 -0.1140453 -0.39659154 -0.17547752 0.101007566 0.16568738 0.19864406 0.11887716 -0.079752974 0.020868747 -0.13913618 -0.25638348 -0.08885298 0.06282393 -0.07007795 0.1398495 -0.016524596 0.04398727 0.107810326 0.19608955 -0.34758228 -0.3051275 0.042711504 0.082075395 -0.15828815 0.023615625 -0.118942134 0.25826672 0.060218956 0.063129306 -0.13554992 0.04047155 0.0595143 0.016568713 0.090677194 -0.11214199 -0.011208432 0.33491716 -0.24402456 -0.21148138 -0.30196843
18 0.056379154 -0.2163253 -0.061384473 -0.13675219 -0.006723862 -0.1157642 -0.09332359 0.01079902 0.09843046 -0.24105288 -0.050627813 -0.18073612 -0.06728513 0.13360384 -0.016892554 -0.07087029 -0.25586593 0.14465462 -0.15440765 -0.09527938 0.09457429 0.049344108 0.08356884 0.048431303 0.2565086 -0.1968524 -0.09894025 0.072839394 0.08823228 -0.0646755 0.07722376 0.022179136 0.09072055 0.20101382 0.095510915 -0.2471304 -0.0036984591 0.1657428 -0.11207752 -0.06094027 0.25288495 -0.2295646 -0.14680153 0.28634426 -0.12749512 0.07381136 -0.10704511 -0.10076808 -0.19281015 0.11018544 -0.26109356 0.061602127 -0.0059824726 -0.028381864 -0.011627846 -0.2568674 0.045625426 -0.2627587 0.5155975 0.039500937 0.46054134 -0.09492145 0.07302297 0.14933641 -0.030117555 -0.16178958 -0.006834576 0.19917493 0.023232935 -0.17032102 -0.04950754 -0.08630473 0.15730837 0.20255072 0.05822548 -0.091532595 0.080100305 0.21803772 0.15670797 -0.33523452 0.25367907 0.12854941 0.16877809 -0.027071387 0.044633377 0.14289634 -0.0003746474 -0.24007095 -0.23328139 0.24382423 0.009167562 0.09975081 -0.0068676993 0.014452015 0.11931014 -0.114920184 -0.17172511 -0.050323993 -0.15183805 -0.14064786 0.0981237 0.22453386 0.06804831 0.0970149 -0.06707762 0.12441934 0.1534689 0.08255898 -0.24468808 -0.17453969 0.13560891 -0.15113096 -0.43836305 -0.13026965 0.05847546 -0.003985049 0.15399328 -0.07449506 0.1526284 -0.0066483673 0.25312957 0.02982142 0.13207367 0.08890253 -0.01146816 -0.07712818 -0.14277954 -0.3296121
362 0.07635818 0.23272051 -0.16202107 0.1178104 0.2790468 -0.13346052 0.09216087 -0.08353419 0.17847164 0.16904421 -0.0459654 -0.17801894 -0.039678246 -0.3309965 0.056965116 0.1476551 0.040100604 -0.02311071 -0.28410366 0.119897395 -0.30735475 0.1540766 0.22712629 -0.15100996 -0.1704536 -0.20640683 0.07778208 0.14281476 -0.09477714 -0.3539904 -0.11250385 0.028750414 0.14948437 0.19789897 0.4755772 -0.07909454 0.13315004 0.32695112 0.032312516 -0.028127838 0.18284595 -0.2153877 -0.17954627 0.01926746 -0.41108525 0.1103577 -0.25431195 0.28408223 -0.24428047 0.14442609 -0.19687803 -0.249791 -0.075128175 -0.32094705 0.37271866 -0.19552703 0.052121446 -0.12276264 0.26419687 -0.18048832 0.013565535 -0.2038691 -0.021066984 -0.10846672 -0.010824845 0.24797407 -0.26797614 0.17953956 0.06814419 0.34424484 0.03572616 0.0006181518 0.11060036 -0.089160316 -0.11142058 0.062506795 0.07500442 -0.05225822 0.10862093 0.06300283 0.1832161 0.17389233 0.108602434 -0.0019248923 -0.42545894 -0.20672809 0.07144113 0.021930864 0.110601835 0.22735772 0.29890117 0.10271534 -0.1569801 -0.26094946 0.11081513 0.07253413 0.21429946 -0.20473862 -0.29239398 -0.0908277 -0.12338924 0.07146551 -0.24378404 0.2220925 0.14180273 -0.07536019 0.14183843 -0.15552865 -0.35116088 -0.13014427 -0.09992006 -0.12912224 -0.17211342 0.101618424 0.42432803 0.0020131147 0.33055815 0.28596506 -0.18234812 -0.11087047 -0.13473234 0.06340164 0.14107211 -0.07454532 0.06301164 -0.014208515 -0.18037368 -0.058962297
477 -0.08335315 -0.0075547337 0.09091259 0.10567451 0.2310902 -0.20646167 -0.006257825 0.058323093 0.11540928 0.025510738 0.08533255 0.12203149 -0.10660366 -0.124878585 0.2522216 0.031739052 -0.13023353 0.03550398 -0.22532623 -0.25924617 0.20383589 0.07703867 -0.02130627 -0.20713064 0.23015642 -0.11449662 -0.1701572 -0.13751213 -0.07016725 0.22920977 -0.075943545 0.1766884 0.012941364 -0.086744234 -0.024137687 -0.021839656 0.036372807 0.14365147 0.07253261 0.07293554 -0.17270252 0.079083405 -0.0090060895 0.049125765 0.007223536 0.12768762 0.05542225 -0.049664773 0.043900244 0.21976638 -0.19344497 0.14140123 0.173692 0.019678412 -0.0961262 0.15601629 -0.00885525 0.06437121 0.058740646 0.016322706 0.12252447 -0.11007209 0.04277474 0.0845429 0.14935865 -0.10997287 -0.102824956 0.118564956 -0.03699731 0.043101303 0.098982766 0.0155646885 0.06996798 0.086066544 0.0116965845 0.004161867 -0.0254404 0.047825094 0.17609099 0.1856515 0.28630725 0.2033205 -0.08924286 -0.030567609 0.09869867 -0.06859428 0.056967713 -0.044078518 0.028289448 0.038820673 0.053640846 0.04329926 0.0154892625 0.085028306 0.013444238 0.23227467 -0.04406442 -0.12502778 0.1095379 -0.058620114 -0.09387637 0.41664305 -0.0506401 -0.043637063 0.1564586 -0.040113047 0.12772973 0.24344221 -0.06919733 0.04517963 0.04248566 -0.3042927 -0.20862718 -0.28090793 0.20071141 0.36370516 0.24480632 -0.1231814 0.15827222 0.111146495 -0.06515358 -0.09173343 -0.18875875 0.20875952 0.04786839 0.016819958 -0.3711938 0.043106996
394 -0.32515228 0.03438335 0.24932623 0.18946898 0.16532323 -0.09501627 -0.24963959 0.26984307 0.009406084 0.18432137 -0.26450834 -0.30099154 -0.098582655 0.030093204 -0.09657839 -0.5014036 -0.19390045 0.30064628 -0.13983534 -0.05671263 0.0048377393 0.12973766 0.016094552 -0.14292935 0.28047752 -0.11152976 -0.1286343 -0.007659321 0.11047816 0.020478487 -0.14484392 -0.12616251 -0.07898767 0.40069836 0.19070499 -0.034084037 -0.0023817255 -0.076234736 -0.0069719814 -0.1368979 -0.080953784 -0.12023669 -0.08431371 0.20253369 -0.19944635 -0.2225569 0.2085314 -0.040241215 -0.37395307 -0.16205831 -0.40647122 -0.022662576 -0.10549122 -0.09502141 -0.28280333 -0.0084171435 -0.10352486 -0.15973371 -0.0015259081 -0.13098444 0.19479363 -0.08598155 -0.16087562 0.1268216 -0.1351457 0.12082119 -0.031838037 0.1447255 0.022531442 -0.1402517 -0.0025951592 -0.21337086 -0.21551748 0.14810966 0.08944233 0.008532034 0.09244332 0.2495239 -0.07654312 0.20365925 0.20892695 0.1207357 0.22974914 -0.39571467 -0.07951868 0.015733624 0.06147287 0.12723082 -0.15769656 0.11005381 0.1592706 -0.2836648 -0.07018748 -0.06519928 0.18637353 0.10837175 -0.0489627 0.016621485 0.08115034 0.1521059 -0.11476928 -0.0535019 -0.012389911 0.15046088 0.07085048 -0.014650692 -0.39711878 0.13828862 -0.23574898 0.036343683 -0.09821895 0.035318583 -0.2655496 -0.109531954 -0.042718068 0.21116486 0.07242399 0.15813853 0.1377656 0.031052383 0.013458759 0.2152983 -0.22020836 0.0011146783 -0.047145665 -0.060979847 -0.19800262 -0.08428504
330 -0.09147996 0.06101716 -0.0062390477 0.019981697 0.0065124896 -0.24225649 -0.09619901 -0.05747346 0.1007553 -0.24767391 0.18173195 -0.49312162 -0.21100725 0.08787588 0.005949131 -0.26360157 -0.028949149 0.029658668 -0.1977813 -0.120076366 0.24959932 -0.14566436 0.24836001 -0.42144784 0.14028575 -0.15235993 0.18697064 -0.05068634 0.04441345 0.32116166 0.17423196 0.08172116 0.07340434 0.3370764 0.27022335 -0.23844008 0.13468777 -0.09012909 0.18365046 0.048645727 0.13600314 -0.18640085 -0.055718433 0.39132127 -0.004763895 0.023999935 -0.27792153 -0.3162763 -0.15042219 0.11697013 -0.170479 -0.07783541 -0.03884859 0.24304312 -0.1934499 -0.09925403 -0.25727227 0.16002321 -0.020056231 -0.1628899 0.30787793 -0.06969006 -0.08842284 0.19752614 -0.1319059 0.025181212 0.105433226 0.17021021 0.24259235 -0.028977051 0.13056113 0.21525104 -0.025426451 0.4084726 -0.19480392 0.03098608 0.49487284 0.05440234 0.074997984 -0.08844211 -0.089586705 0.04653657 0.055746716 0.09226271 0.30225447 0.20443729 0.20567986 -0.3796183 0.13337323 -0.14780359 -0.2566258 -0.41562453 -0.036161907 0.014033809 -0.111245856 0.22334571 0.08283149 0.16606478 0.0062241727 -0.2551196 0.10494566 0.10172332 -0.27060935 0.08572769 -0.11949123 -0.18621457 0.14849943 0.14304836 0.17915507 -0.022762213 0.047720995 -0.08958155 -0.21052465 -0.27243006 0.34883627 0.40454876 -0.08857902 -0.1884049 0.27317816 -0.22574198 0.17367825 0.09054279 0.006591005 -0.020133425 -0.013206203 0.09505763 0.37752315 0.08282008
545 0.10379117 -0.13344495 -0.06283486 -0.025278054 0.30167606 0.09303601 0.24426691 0.008430035 0.08804656 -0.29588354 0.078665815 -0.1738469 0.18815413 -0.07432435 0.1668521 0.20137566 0.04158921 -0.20541501 0.005960968 0.14500709 -0.0878676 0.0099502215 0.07831231 -0.2549229 0.12340957 0.036077276 -0.08837603 -0.27457917 -0.030363064 0.21588814 -0.01779696 -0.15813135 0.33128396 0.15385766 0.05935071 0.010607575 -0.11300555 0.034524743 0.020402733 -0.08155648 0.025252992 0.09649473 -0.27809772 0.26874164 -0.036818832 0.22846235 -0.21344437 -0.20083524 -0.24848801 -0.062373005 -0.30714628 0.011490837 0.15082556 0.14986013 0.02019851 -0.3989513 -0.20584993 0.14414342 0.16378538 0.1404909 0.19357872 0.015178024 -0.14104813 -0.07513186 0.063598156 -0.13609779 -0.21001594 0.009013117 0.25688 0.09267142 -0.14512214 -0.20823717 -0.15730363 0.23157312 -0.03796768 0.21652742 0.35262305 0.21125145 -0.1428499 0.004858662 0.24798046 0.10835099 -0.007327511 0.17089067 -0.061294105 -0.2062434 0.091409124 0.06480597 0.065228075 0.16227685 0.020024875 -0.15768859 -0.52433807 0.11218817 -0.15054478 0.1656833 0.19701132 -0.22941996 -0.09295571 0.019933125 -0.07486757 0.29472604 0.11073634 0.046333626 0.118879996 -0.10697547 -0.16296886 -0.00290019 0.084097564 0.011922218 0.2936128 -0.10141875 -0.14644706 -0.15585443 -0.05807576 0.27353558 0.20723288 0.17090118 -0.07458113 -0.039124973 -0.02708362 0.1386969 0.00050708133 -0.044804357 -0.1282256 0.095356874 -0.2362888 0.023320679
247 0.048082005 0.10258993 -0.03447429 0.24445882 0.06263227 -0.25174445 -0.2470261 0.05275452 0.07957602 -0.021841174 -0.06738525 0.15801933 -0.2785204 -0.21311945 0.09034294 0.016603407 -0.14131163 -0.26035085 -0.51253086 -0.13875824 -0.060203988 -0.013726288 -0.18277058 -0.09556189 0.13158403 0.020654866 -0.004508579 0.033093754 -0.16303048 -0.19999306 -0.17294368 0.26931557 0.076474026 0.19222827 0.15865764 0.12778164 -0.33876172 -0.20109397 -0.2080323 0.11913473 -0.0011864929 0.05573303 0.069816306 0.28857264 -0.14375915 0.057653423 -0.1737739 -0.09075308 -0.1027412 0.1815658 -0.16552402 0.4584279 0.0230627 -0.24176799 0.01993651 -0.027243236 -0.026053693 0.09693266 -0.006868004 -0.28824142 0.21867447 0.044698175 -0.20431207 0.015959967 -0.12570213 -0.110706545 -0.23853962 0.11335376 0.0045249434 0.28928563 -0.11283295 0.045837484 -0.16456403 -0.18747683 0.04989356 0.1848849 0.2612527 0.056130137 -0.036546763 -0.09086741 0.25111264 0.079398364 -0.23865178 0.02153832 -0.20089717 0.014439997 -0.04755917 -0.12215171 0.17148866 0.26249707 0.054400098 0.51205474 0.0145214945 -0.19040427 -0.08599981 -0.06995369 0.09771784 -0.017486682 -0.18498541 -0.09913901 0.020801328 0.099819124 0.19008365 -0.23857342 0.008293955 -0.1860172 0.012896882 0.002081763 -0.20720144 0.10087945 0.051405184 -0.21609212 -0.34888938 0.3036833 0.19034827 0.16504538 0.35956532 -0.39253217 0.23632742 -0.035249792 -0.07798627 0.060772028 -0.14325655 -0.011515506 -0.048454743 0.04984925 -0.22303994 0.050376967
426 -0.04466004 0.37603402 -0.092174165 0.015634742 -0.06267621 -0.09078878 -0.0673563 -0.15548673 0.14604466 -0.14205639 -0.088256426 -0.115211256 0.33056056 -0.14654638 -0.08451587 -0.2614426 -0.12238151 -0.030882038 -0.090358034 0.17494588 0.22706726 0.2859444 -0.13982396 0.21163675 0.07242153 0.16370183 0.043103054 -0.040562753 0.013573146 -0.12809049 0.063287385 -0.02262352 -0.12716846 0.2390027 0.29002213 0.31617227 0.057950694 -0.17897727 0.05179985 -0.09135752 -0.19737816 -0.047984816 -0.09639354 0.025374182 -0.2866054 -0.072425 0.10333469 0.017307792 0.19930366 0.05908645 0.0997448 0.30990174 -0.092719264 0.035504255 -0.048000768 -0.01565473 -0.015499111 0.22706701 0.3615936 -0.003952167 0.15516543 -0.236603 0.16083884 0.15865138 0.088109836 -0.021532143 0.055059407 -0.19900097 -0.091877416 -0.053814188 -0.34653622 0.086490795 0.0051312223 0.0054243444 -0.14381474 0.011809573 0.19055612 0.0474726 -0.12204197 0.2971147 0.09397902 0.41555706 0.21981652 0.21764228 -0.16122212 0.19188091 0.13475543 -0.18495178 0.15595034 0.2764465 -0.24114639 0.15947469 -0.07758456 0.13791946 -0.10264116 0.12421404 0.35430187 0.008967568 -0.16436386 -0.02050244 0.39909074 0.211448 -0.23776951 0.013137906 0.10189031 0.040877163 -0.07827474 0.32587945 -0.057971712 -0.118745565 0.16032007 -0.074972264 -0.2954965 -0.067288324 0.18493888 0.29346177 0.080537975 -0.028796162 -0.08017514 -0.25511232 -0.21788752 -0.3006687 -0.13985397 -0.2572902 -0.17692478 -0.16625495 -0.1649365 0.16411996
364 -0.06473299 -0.17919704 -0.19292402 0.001610261 0.15033169 -0.1464405 -0.27751467 0.12469604 0.01765713 -0.36357135 -0.23775232 -0.17351665 -0.038519055 -0.01571444 -0.27428672 0.10000221 -0.12328649 0.06035411 -0.20804447 0.13238956 -0.09685097 -0.02075646 0.09103744 -0.045361236 -0.09628525 -0.2098744 -0.1419011 -0.2120827 -0.08792741 0.08088551 0.104358055 -0.17625982 0.17513834 -0.037388835 0.1677643 0.3006691 -0.04112557 0.091715604 0.0861168 0.124893524 0.066194564 -0.43787014 0.12985303 0.1614459 -0.26603222 0.18316169 -0.022011105 -0.15052125 0.18838426 0.11774356 -0.275619 0.06367659 0.11758174 -0.36314657 -0.087982416 -0.063487604 -0.2914695 0.04040512 0.20290093 0.099605724 0.25549233 -0.3868453 -0.1600197 0.2682057 0.13763954 -0.17816111 0.03374985 0.0038001416 -0.14130925 0.18139873 -0.27098966 -0.07079613 -0.053792562 -0.05131918 0.039378267 0.0097706 0.29602686 -0.037649482 -0.10882884 -0.21989453 -0.20523708 0.27111953 -0.17656423 0.05444699 0.03108929 0.2801715 -0.22329722 0.0067013497 -0.19994643 0.04538148 -0.2625202 -0.08805052 -0.10679029 0.16461362 0.115640774 0.16701877 0.1228336 -0.0012257303 -0.26385003 -0.34671685 -0.110485725 -0.1157446 0.16918339 0.20811304 -0.1422832 -0.037295565 -0.1036644 0.000879315 -0.04607194 0.15879726 -0.060268898 -0.2670109 -0.08887577 0.099542215 0.10468138 0.1461192 0.00018811859 -0.12607919 0.053943507 0.04715594 0.058839213 -0.04527447 -0.069383286 -0.0644955 0.1768101 -0.09890639 -0.26022545 -0.12970993
455 0.048966475 0.00058997533 -0.052335072 0.15800062 0.022842241 -0.021584671 0.0492185 -0.013008152 0.063592 0.1125393 -0.022172755 -0.16086356 0.026880594 0.0048073283 -0.0685242 -0.14706261 -0.022393938 -0.020364627 0.29611778 -0.21671665 -0.093509756 0.013341606 0.1514737 -0.066159025 0.22870052 0.02062743 0.076996006 0.1094204 -0.016134197 -0.071785316 -0.10313132 -0.19340314 -0.0074066534 0.070224285 0.29707357 0.1298817 -0.049770925 0.25887963 -0.06398053 0.28524894 0.074539624 -0.2243149 0.10477603 -0.16057312 -0.23853926 0.011173383 0.108148836 0.17618756 0.08285888 -0.060531612 0.049921572 0.115119815 0.01282411 -0.1460025 0.071993455 0.10579704 -0.11054226 0.07505082 0.19978616 0.0017932974 0.07964577 -0.016815923 -0.03128426 0.3275503 0.00700144 -0.3912941 0.031378992 -0.08549066 -0.26443604 0.40723583 -0.51368296 0.027665108 0.24071814 0.13642146 -0.087224096 0.2511397 -0.04919295 0.050075177 -0.027943796 0.112617396 -0.057042066 0.4067943 -0.11185877 -0.007726526 -0.22573712 0.20621237 -0.12579264 -0.378757 -0.23645416 -0.22309425 0.18733734 -0.104704715 -0.079129666 0.2220271 0.07245955 0.3052413 0.07203523 0.09175491 -0.049823184 -0.22165447 -0.10937455 0.19079626 0.20189652 0.2391579 0.28724355 -0.1229955 0.37263158 0.084172405 -0.026505994 0.053939685 -0.12659484 -0.0031483485 -0.30306014 -0.08092901 0.1023246 0.28455818 0.17702733 -0.19948906 0.15827493 0.018630134 -0.12653992 0.15895471 -0.24025194 0.1541537 0.044076733 0.08031487 -0.476077 -0.060859147
530 0.17945512 0.09378597 0.1705807 -0.20409009 -0.0812076 -0.06288426 -0.1818503 -0.1606376 0.28138474 -0.20674424 -0.16079898 -0.2902581 -0.11604319 -0.23628847 0.1775947 -0.06334968 0.061578482 -0.10835975 -0.24778402 -0.043472376 0.11297092 0.045270476 -0.04697326 -0.10328911 0.20745793 -0.10416 0.042918123 -0.2524697 -0.025929334 -0.018454434 -0.05178193 0.07867889 0.043934315 0.25946426 0.1967856 0.16586791 -0.08523135 -0.06188809 -0.1767371 -0.19476537 -0.047527444 -0.2148212 0.07380557 -0.08391654 -0.22534795 -0.046933234 -0.019948019 -0.085772336 -0.0047213836 -0.121386416 0.050511364 0.014445719 0.06804361 -0.11340535 -0.20903909 -0.13458364 -0.3050657 -0.14613001 0.21204776 0.0706959 -0.019816043 -0.08607934 -0.08430194 -0.01602047 -0.078040615 -0.042061355 -0.27052847 -0.05604644 -0.11869875 0.17085242 -0.22066021 0.027259046 0.12360606 0.04701786 0.06027029 0.20238355 0.070825376 0.15036392 0.41187847 0.024058465 0.19914396 -0.11565106 0.046322748 0.054103497 -0.2898186 -0.010372487 0.068306305 -0.14941947 0.12750195 0.03858576 0.18317108 0.14937705 0.095221855 -0.09180066 0.026561778 -0.19051744 0.07356765 -0.058206756 -0.27679008 0.002196792 -0.11014094 -0.024236877 0.0034830647 0.16944857 -0.2127722 -0.04961944 -0.06096294 0.15463059 -0.095781565 0.041817542 0.033337276 -0.064795405 -0.091529116 -0.17935689 0.20025879 -0.030695857 0.2241878 0.07395574 0.13567726 -0.016106075 -0.16962612 0.02970169 -0.18103549 0.11545803 0.2300717 0.033898838 -0.089843325 -0.19018158
65 -0.1488428 -0.025968457 -0.12547415 -0.25887975 -0.034233976 0.08817318 0.11999939 -0.35210246 0.19196914 -0.16077505 0.0738088 -0.1482281 0.328356 -0.09536441 -0.112195425 -0.5171581 -0.13547692 0.052426174 -0.089196175 -0.050536662 0.10584859 -0.30172542 -0.0013406572 -0.035387613 0.3343668 -0.13980353 0.14701957 -0.18919767 0.25847697 -0.0510022 -0.0024020188 -0.041949756 -0.025095964 0.076467894 0.2590528 -0.19671243 -0.08898611 -0.085813046 0.27585617 0.032133583 -0.054579865 -0.128709 0.014565457 0.002977547 -0.2980142 -0.27413303 -0.075794704 -0.030845294 -0.09164741 0.21236327 -0.14294457 0.022325812 0.15805641 -0.025598342 0.029368794 -0.20090684 -0.15596247 0.105619974 0.061914343 0.20201129 0.10626696 0.28858837 0.15590896 0.071734294 0.10068704 0.04400516 -0.06298455 0.007105676 0.0262147 0.022362905 -0.016563851 0.3014365 -0.024042899 0.15898004 -0.28801066 -0.0580458 -0.13635336 0.25347143 -0.12576406 -0.0036773235 -0.07562043 0.20799127 0.07156049 0.2528747 -0.19324622 0.041566294 0.16862991 0.30234593 0.08200539 0.10197574 0.24810228 -0.036390502 0.07095582 0.23427352 -0.11154997 0.004902506 0.18258007 -0.16567467 0.057955876 -0.29544997 -0.0057807257 0.2894387 -0.03748252 -0.0754971 -0.021181677 -0.11089487 0.012068966 -0.16522285 -0.064107575 0.23015755 0.14064601 -0.14935529 -0.09175595 -0.18444462 0.0896609 0.12534863 0.3011819 0.16360195 0.12564397 0.07204266 -0.10847032 0.24385498 -0.36629158 -0.094147965 0.08055978 0.064341545 -0.23642555 0.15966578
310 -0.4278593 0.231929 -0.21351957 0.16349201 -0.14013112 -0.28650188 -0.20296158 -0.13417684 0.22147273 -0.07667698 -0.42106867 0.04252498 -0.012910166 -0.029486647 -0.04928275 -0.095898435 0.09563021 -0.06451022 -0.029363444 0.08923371 -0.17172064 -0.30834216 0.04418434 -0.2970249 0.28238294 -0.10788456 0.23479663 -0.22050752 0.0060397554 -0.100133486 -0.15932742 -0.07638732 0.12675667 -0.07137104 -0.078595944 0.06422301 0.18589385 0.449043 -0.09608476 0.054836955 -0.067302674 -0.326597 -0.069833614 -0.15417731 -0.45182192 0.21129917 -0.15325633 0.12377713 -0.03327432 -0.27188554 -0.11716601 -0.3263258 0.22491667 -0.13908094 -0.14366469 -0.005849279 -0.028930843 -0.2553377 -0.0060065924 -0.28197113 0.24406415 -0.23415825 -0.24919212 -0.26328266 0.011663499 -0.05927671 -0.15221396 0.07358485 -0.2793898 0.14380863 -0.3521509 -0.036994673 0.09941328 -0.14135352 0.007300714 -0.065603785 0.023837056 0.08036503 0.059463367 -0.32179874 -0.35622227 0.04682856 0.047320012 -0.0057014395 -0.087933734 0.12284918 0.32291922 0.13185787 0.04909357 -0.10956314 -0.1119254 -0.10498164 0.20116161 0.21234694 0.16868919 -0.13760795 -0.09104229 0.18906622 -0.23072985 -0.28286186 -0.07920122 0.18901011 -0.14147133 -0.04200416 -0.29477432 0.026231822 0.07075848 0.18660788 -0.5208881 0.09683358 0.2946316 -0.2660028 -0.41657007 -0.19051917 0.43078077 0.08987033 0.24924631 0.20554031 -0.014163141 -0.041127108 -0.08946141 0.051006712 0.08086236 -0.20832328 0.12887885 0.2923126 -0.518668 0.04921103
105 0.11140603 0.091599345 -0.07356057 -0.25583664 0.0076594995 -0.09100116 0.048150163 0.08469217 0.076792985 -0.012502758 -0.07843073 0.018375635 0.03465333 -0.15105651 0.38687426 0.05243397 -0.1357804 -0.10720573 0.063837096 0.09360698 0.026855255 -0.09132723 -0.05014464 -0.12739542 0.3262202 -0.038972054 0.12606874 -0.09492779 0.013033729 0.02882725 0.07124668 -0.015614779 -0.2184382 0.035459932 0.15623792 -0.008710141 -0.029591758 -0.09797865 -0.121952966 -0.2992928 -0.058653563 0.010008381 0.08510341 0.02175949 -0.05718837 -0.12892643 -0.07023867 -0.10673143 -0.042779446 0.069114655 -0.17477143 0.17893073 0.015794007 -0.038194258 -0.33461198 0.062521555 -0.22096775 -0.06115112 0.22546457 -0.17779316 -0.11407278 -0.11177488 -0.047787674 -0.10866865 -0.02564421 0.054281436 -0.22011758 0.20894822 0.015981218 0.3008081 0.021443395 -0.049516313 -0.23019856 -0.024336547 -0.078533255 0.15204464 0.21068697 0.08387924 0.082720056 0.11071873 0.15955381 0.22046036 -0.1629809 0.05559589 -0.013585105 0.10637311 -0.06725549 -0.0857468 -0.10580887 0.32890162 -0.116871126 0.102070436 -0.15985188 0.12144058 0.02493858 0.15666886 0.15116023 0.05352123 0.30088648 0.032439206 -0.044423588 -0.002540859 -0.094358675 0.19340044 0.15080611 0.16189869 -0.021568656 -0.09038274 -0.23374888 0.09771495 0.25366053 -0.09219713 -0.27862543 0.026284052 -0.096020594 0.14731385 0.2835711 -0.11038831 0.09393513 0.07653883 -0.36073402 -0.120965734 0.15215799 0.008327525 -0.1379698 -0.032329317 -0.1768797 -0.05216995
280 -0.15441078 0.08410999 0.07304456 0.12491602 0.2731762 -0.23090076 -0.14807215 0.1139918 -0.11413671 -0.08275958 -0.3660818 -0.3590724 0.009539664 -0.08368907 -0.4255341 0.0044726487 -0.24670376 -0.02081352 0.029633265 0.07335186 -0.39263728 0.12734225 0.16943054 -0.28633386 0.10013558 -0.085532285 -0.039325953 -0.25485027 0.13301802 0.2051847 0.0764947 -0.3322524 0.02686178 -0.0591589 0.029736115 0.39523706 -0.08336239 0.21856356 0.14284448 -0.1448912 -0.04698987 -0.26740378 0.13501312 -0.044261195 -0.21871737 -0.030552331 -0.056292992 0.031745773 -0.07365973 0.044043537 -0.32832205 -0.1860496 -0.13831311 -0.43499917 -0.06596874 -0.09895902 0.027903454 0.024019344 -0.12792005 -0.10495947 0.29787177 -0.4606094 -0.2795365 0.23132956 0.22515771 -0.427399 -0.0032180846 0.1263795 -0.17486967 0.24562311 -0.3649796 -0.07153607 0.022913815 0.023366049 -0.263287 0.2685717 0.46162456 0.06594036 -0.14664307 -0.02268845 -0.075183436 0.21919997 -0.13801925 -0.09582723 -0.013111564 0.49944508 -0.16621485 -0.19114617 -0.2171484 0.06372809 -0.14272386 -0.052273713 0.14100245 0.25272352 0.11878641 0.039991498 0.111442655 0.1854451 -0.150487 -0.17254682 0.011871203 -0.001137845 0.014420331 0.17332387 0.059555255 -0.018043756 0.0065043876 0.09666919 -0.08226922 -0.030909764 0.015314852 -0.029608443 0.17320013 0.1492469 0.4003486 0.37094492 -0.118920006 0.08803175 -0.1953138 -0.10375945 -0.060317542 -0.20446852 -0.077032916 -0.15761416 0.089576274 -0.12493758 -0.2294063 -0.24914932
210 -0.13425934 -0.034849655 0.24444301 0.01670776 -0.034016214 -0.17292254 -0.26228118 -0.06351189 -0.02873459 -0.033336308 0.008654253 -0.024204781 -0.08303861 -0.25129837 0.08608343 -0.02944201 -0.37506837 -0.02279174 -0.28915483 0.09010152 -0.008280283 -0.06569583 -0.20498312 -0.11480083 -0.0077985926 -0.28233704 -0.13182527 -0.13205916 -0.040655605 -0.17604877 -0.15706767 0.11660646 -0.035440303 0.08596186 -0.021808298 0.046121284 0.0627643 -0.11590266 -0.067030035 -0.24278751 0.1483921 0.032714497 0.0086961035 0.1042845 -0.06270044 0.004769166 0.14267707 -0.18529452 -0.23605107 0.13453811 -0.14893943 -0.07323655 0.054003634 -0.22031449 -0.1671384 0.091628216 -0.19706297 0.12873699 -0.09358571 0.14748289 -0.0743871 0.019796746 0.13232107 0.17001419 -0.21958758 0.02051939 -0.24071254 0.15302904 -0.15853275 0.048131455 0.0022541292 0.049506836 -0.23357508 -0.15401018 -0.30381036 0.14458628 0.37599695 -0.12409921 0.11625652 -0.12978555 0.101134755 0.37450516 -0.272572 -0.16309975 -0.12910204 -0.024142154 0.3011029 -0.09161497 -0.08409731 -0.15103583 -0.027800787 0.3096448 0.13353416 0.19660725 -0.0053681987 0.1560533 0.104324706 -0.13279413 0.03216489 -0.15191965 -0.052574605 0.12532887 0.0065143285 0.24955015 -0.11085978 0.032669004 -0.18962148 -0.01237186 -0.017865127 -0.120553225 0.0071709887 -0.016583703 -0.398883 0.10329409 0.17369866 0.22346255 0.14571959 -0.038137484 0.19854304 0.15509295 0.042189583 -0.06728674 0.20330179 -0.08495851 0.34697893 0.1050495 -0.16504362 0.3508972
262 -0.16103272 0.21470767 0.30964616 -0.051343862 -0.023498483 -0.21506491 -0.07170103 0.10948497 0.23759416 0.22693841 -0.23504888 -0.29867035 -0.39057678 0.2336137 0.18277636 -0.32779044 -0.38342375 0.007994615 -0.2041204 0.22897986 -0.09743142 0.23468594 -0.2690932 -0.066762134 0.36451417 -0.5799565 -0.3327084 0.17833187 0.18089163 0.08227906 -0.0748879 0.061211012 -0.059140977 0.11747909 0.058245987 0.03300002 -0.19986825 0.3946437 -0.2863925 -0.21619062 -0.049395863 -0.30608028 -0.19767644 0.107643254 -0.09217909 0.11509601 0.008500673 -0.18721592 0.13559942 0.042462304 -0.02254074 -0.19907938 0.11665133 0.07778389 -0.07005943 -0.22757873 0.22567163 -0.04344586 -0.07433307 -0.12256012 0.22657754 0.023025064 -0.13129531 0.04713783 0.16571186 -0.26149303 0.074068435 0.39702162 -0.041662734 0.005850148 -0.06373543 -0.0119951945 -0.20643966 0.29966828 -0.12048014 0.2148411 0.10101548 0.3423216 -0.037531555 -0.016152028 0.39209107 -0.039397344 0.33923718 -0.08171573 0.030283809 -0.08311012 0.1460778 -0.17944172 -0.1923436 0.05425169 0.32516813 0.22765651 0.18771021 0.15984263 -0.41474226 -0.3089699 0.07068087 0.030079752 -0.016901448 0.049765185 0.16155894 0.05060209 -0.28360775 0.07779491 -0.1017845 0.13469812 -0.1159565 0.27580082 -0.13910168 -0.20369177 -0.017758531 -0.1308095 -0.18979976 -0.18636857 -0.25323927 0.14077458 0.22905315 -0.26412207 0.6653253 0.36219996 0.35905096 0.15039364 -0.27412638 0.02919424 0.07122127 -0.03140208 -0.3009506 -0.16426875
204 -0.041627713 0.04470715 -0.028555678 0.1074117 -0.035372514 0.12398964 -0.12164595 0.012471223 -0.123909324 0.19105844 -0.033279978 0.18796894 -0.06437561 0.08460045 0.038972687 -0.15501715 -0.19000633 -0.029910805 -0.031187963 -0.04870474 0.005168273 -0.10830775 -0.045514233 -0.09017462 0.20866504 -0.12314181 -0.021654122 -0.18548277 -0.02686075 0.25447384 -0.009772899 0.1772659 -0.032336578 -0.049414556 0.008828489 -0.006811742 0.008881349 0.091336615 -0.08602254 -0.11569556 -0.117775775 0.01124157 -0.12563837 0.23606332 -0.09440168 -0.011171867 0.03753084 0.04008234 -0.048802365 -0.009279483 -0.11592055 -0.14259292 -0.0031447047 -0.028044483 0.04469913 -0.04811479 -0.015037771 -0.053921923 -0.04405214 -0.12699607 0.024535077 -0.040823836 -0.091577515 0.07740054 0.013742831 0.20530523 -0.24100654 0.038058054 -0.0005443725 0.077358104 -0.19638675 0.012312091 -0.04396793 0.05435868 0.06376292 0.010556707 -0.076660976 0.08448544 -0.052475415 0.028737947 -0.015299769 0.25200853 0.031771414 0.21914625 -0.13685997 0.034638245 -0.15215509 -0.18509038 0.0026740576 0.017900165 0.0031008634 -0.09967656 -0.0032718603 0.02900838 -0.05447749 0.15585285 0.07466115 -0.19182965 -0.16705774 -0.1695821 -0.011545006 0.32106727 -0.10077352 0.034819186 -0.05915182 0.06464363 -0.01842018 -0.08420972 -0.37568465 -0.03871558 0.034277204 -0.01637106 -0.2954549 -0.013426812 0.16737124 0.28325954 0.044394005 -0.053921085 -0.066572785 -0.010134951 -0.10661123 0.08554648 -0.04914447 0.034881733 0.14248627 0.17602299 -0.2793212 -0.11818843
335 0.0114493435 0.058541574 -0.071347795 0.032328114 -0.079531185 0.00971972 0.057809662 0.05645085 -0.07704707 0.257963 -0.12080843 0.25255322 0.037277274 -0.25561056 0.049311884 0.00819078 0.097956054 0.1665479 0.031534243 0.11644396 0.1408434 -0.05557208 -0.11656772 -0.057487693 0.054177787 -0.42265347 0.08463169 0.112951204 -0.3169454 0.007912633 -0.091051355 -0.0063016494 0.14368168 0.09255156 -0.05287782 -0.23298068 0.052720193 0.13945611 0.16341206 0.13863295 -0.10113615 -0.21273108 -0.14405607 -0.079755776 -0.31438217 0.1432067 0.15082553 0.051637936 -0.2225066 -0.014102658 -0.15864456 0.3763062 0.03383213 -0.2675978 0.21669324 -0.09456757 0.03429803 0.14533855 0.15933481 0.12583387 -0.043357104 0.21259508 0.04109685 0.17957301 -0.14291577 0.03661263 -0.105024345 0.15960923 -0.30988413 0.02951609 -0.18051083 -0.011891917 -0.16677485 -0.12899804 -0.07438194 -0.007259257 -0.035655405 0.08877377 -0.21489505 0.119292416 -0.1471504 0.50321597 0.014566054 -0.19360411 -0.26041836 0.09684455 -0.10655293 0.11221167 -0.38619882 0.07240715 -0.32321656 0.057231348 -0.11030042 0.14467385 -0.11746414 0.15829575 -0.039703663 -0.2267026 -0.039097924 -0.046903085 -0.05643519 -0.0486572 -0.029387837 0.026533341 0.14292982 -0.13813941 0.060568955 0.06333157 -0.27264628 0.5061516 -0.007501673 -0.29925796 -0.27394733 -0.29324165 0.4107226 0.43658617 0.27945495 -0.23767224 0.18986519 0.15196641 0.011190247 -0.14595492 0.09001442 0.14542155 0.2021036 0.018624946 -0.21688674 -0.16019717
395 0.010843766 -0.121863596 -0.17580259 0.030993883 0.050318707 -0.15724511 0.0451371 0.2489538 0.0013501898 -0.13227294 0.27061778 0.0153789045 -0.27941313 -0.3247083 0.050090596 -0.343773 -0.012343171 0.12658387 -0.080863565 -0.13430278 0.04024058 -0.06829167 0.06234192 -0.19379808 0.13771704 0.25911537 -0.11446918 -0.113579646 -0.10165732 0.21451311 -0.26393372 0.16799523 0.20761381 0.091601335 0.33586624 -0.17212312 0.08668074 0.024938464 -0.07957829 -0.0197323 -0.09043771 -0.0879156 -0.18041332 0.38677523 -0.35284898 0.13098136 0.22578259 -0.037832487 -0.2762432 -0.04680597 -0.20612939 -0.13816379 0.253721 -0.38663393 -0.036743555 -0.13987465 0.007550341 0.1862132 0.41880673 -0.08226983 0.06066002 -0.04825247 0.16394815 0.071519874 0.1345819 0.15465207 -0.11643312 0.06742505 -0.033278316 0.49019203 -0.26065084 -0.072963476 0.65726334 0.13089436 0.059970666 0.4622001 0.010542557 0.28210947 0.4884579 -0.0059140166 0.4536933 0.1392289 -0.1417368 -0.034113567 -0.30844373 -0.02452571 -0.31210604 0.07889453 -0.080965735 -0.35425922 0.09774361 0.024621904 0.23546167 0.12866278 0.02655397 -0.09393005 -0.2968564 0.023492428 -0.0987295 -0.046405505 0.014648748 -0.041623432 -0.1104284 -0.013126315 0.09046778 -0.11472897 0.12311113 -0.2884409 -0.25336465 0.24884026 0.13783468 -0.06706945 0.15744627 -0.2633641 0.13819964 -0.2871728 0.1789575 0.028414672 0.11347728 -0.038941417 -0.06399957 0.023471896 -0.07723074 -0.054202896 0.3353898 -0.3053909 -0.1421578 -0.23473923
328 -0.12507075 0.12199553 -0.14324978 0.2181865 0.016345372 -0.08187883 -0.07133515 -0.008795153 0.06530725 -0.22275142 0.10528446 -0.25016424 0.015372719 -0.07468372 -0.05417087 -0.07732412 -0.026434626 0.030655606 -0.19425707 -0.19301966 0.32375014 0.11201911 -0.15303148 -0.17388465 0.46009585 -0.06278306 0.24545608 0.08236313 0.2525981 0.21496935 0.04904785 -0.080831766 0.071541965 0.07562072 0.058109824 0.21371692 -0.07609596 0.25848034 -0.1611546 -0.0041493047 0.02362723 -0.019987676 -0.19060679 -0.18365252 -0.010192197 -0.09468675 0.1858645 0.030180233 -0.08869129 0.04849111 -0.12404389 -0.09987928 0.088570386 0.26157653 -0.098530374 -0.00021062726 -0.02704236 0.04818826 0.022101957 -0.09980697 0.30886438 -0.3370365 0.10962914 0.16416577 0.1225235 -0.27724516 -0.005443569 0.04463816 -0.037366837 0.08564803 -0.049895056 0.12868801 -0.30907682 -0.0031470454 -0.1265135 0.23759963 0.12547405 0.019093245 0.15528762 -0.06930626 -0.07378679 0.10464834 0.058155406 0.120061345 0.10286688 0.15957892 0.11334034 -0.19754551 -0.1453398 -0.0022368138 -0.01314432 -0.20447804 -0.09735699 0.083249815 -0.1602251 0.1161132 0.2067846 -0.094596 0.023054875 -0.19718389 0.120928325 0.1811 -0.14668837 0.20838918 -0.10655378 0.019005336 0.00083223043 0.042448446 -0.123776615 0.034470722 0.23080339 -0.21235485 0.112300664 -0.096104294 0.027619174 0.4244578 0.110920824 -0.108741775 -0.07098071 -0.17649142 0.063530415 0.17678602 0.19361752 -0.14095616 0.31233013 -0.021043058 -0.21726923 0.0976344
312 -0.24183045 0.007376526 -0.22454973 0.13250537 -0.29090118 -0.15458249 0.0756038 -0.21583602 0.13806292 -0.13503665 -0.34444818 -0.1704616 -0.012863938 -0.10170544 0.12349288 -0.08702589 -0.060111072 -0.22411363 -0.17902507 0.09821213 0.11436707 0.09795761 -0.06403465 0.04420579 0.10683464 0.01402736 0.1761404 -0.021475405 0.19539374 0.04575662 0.09511986 -0.15324771 0.043923464 0.028210394 0.02070847 -0.22652644 -0.13901141 -0.14358874 0.076688014 -0.0011977609 0.080257505 -0.2541472 0.062931225 0.37856436 -0.029465929 -0.036798842 0.07376662 0.2041297 -0.12973614 -0.06690225 -0.2601783 0.023760533 -0.21606496 -0.21316661 0.033611674 -0.11371505 -0.22765338 0.25496927 0.32429138 0.07090269 0.121821545 -0.048347812 0.18586907 -0.06613362 -0.032826796 0.0504 0.0669996 0.043218892 -0.16652264 -0.060146555 -0.10857758 0.015198861 -0.016148258 0.006164435 -0.0929719 0.18135297 -0.19903606 0.26905966 -0.0055524968 0.07717922 -0.118212484 0.1571755 0.04948389 0.20836061 -0.02013366 0.24985935 0.119100295 -0.3523239 -0.121336825 0.39390317 0.044752356 -0.04300798 -0.16873847 -0.046220273 -0.2509369 0.021270655 0.22169492 -0.25512487 0.09239257 -0.10485227 0.32783425 -0.06036489 -0.12517661 0.1052333 0.10563835 -0.1009588 0.0148909725 0.108460195 -0.03447851 0.22170933 0.004142726 -0.16681425 -0.21886763 -0.32411265 0.2770948 0.25672957 0.05063467 0.08474009 -0.06644972 -0.08069737 0.0731028 -0.2975745 -0.030523477 -0.071105205 -0.0052777915 0.06898608 -0.19508266 0.0842401
470 0.04580333 0.0967793 0.23494959 0.09103238 0.17783383 -0.124689244 0.09161177 0.03037919 0.10350448 -0.05571614 -0.24535337 -0.11411435 -0.13182631 -0.11111664 0.03414531 -0.019020213 -0.11067844 -0.10011475 0.08915753 0.38390788 0.03949218 0.04164161 0.15810426 -0.30734178 -0.04614537 -0.21457604 0.10083541 0.12213595 0.06444138 0.049778815 0.09902276 -0.009966765 0.23517813 0.11849391 0.45482507 0.108237974 0.08103766 0.14608045 -0.1241806 -0.060757935 0.039282776 -0.39459422 -0.105493225 0.22315174 -0.32253647 0.11489792 -0.3224381 -0.67815125 -0.018108929 -0.15553847 -0.11771337 -0.20134829 -0.08226782 -0.30337378 0.043186296 -0.30185226 0.056424573 -0.010659495 0.14511615 -0.04369484 -0.17040649 -0.22014084 -0.12557033 0.09132995 0.13523296 -0.28412092 0.035771456 0.14686067 0.16352913 0.26741642 -0.24032307 -0.15537523 -0.0063407696 0.17911349 -0.38181233 -0.07264253 -0.009538436 -0.026501397 -0.07346 0.11233613 -0.06674512 -0.3645976 0.1727347 0.20499618 -0.37432304 -0.10573586 -0.24992065 0.25043577 -0.15103811 0.1691205 -0.21778043 0.08050682 0.04529385 0.117872074 -0.17319897 -0.0050244154 0.016316667 -0.26152888 -0.19954272 -0.11613574 0.02206323 0.08100853 -0.14494187 -0.00776461 -0.14185221 -0.04148211 -0.22857326 0.08849921 -0.18301937 0.23416844 0.2360028 -0.1516998 -0.29026514 0.06820119 0.124773085 0.33446732 0.14298253 -0.04635241 0.0016485656 0.08894067 -0.10443922 -0.13043916 -0.17947419 -0.32276782 0.09620448 0.2236817 -0.019203281 -0.2331519
399 -0.12419807 0.35664672 0.08461277 -0.16936615 -0.16290817 -0.08637346 -0.21196322 -0.10140679 -0.30941492 -0.3714645 -0.2363404 -0.07238998 0.10866288 -0.026540855 -0.005557753 -0.19662388 -0.52743566 0.036473267 -0.31910783 0.16341534 -0.10346021 0.0326387 0.05041391 -0.1505818 0.40037158 -0.40601587 0.008473068 -0.097511604 0.1574378 0.11842617 -0.17721345 0.12072419 0.015244321 0.3412534 0.18454753 0.09761114 -0.26758456 -0.23208468 0.16998552 -0.119368844 -0.13735583 0.11006618 -0.16528177 0.041123904 0.053500015 -0.07521214 0.03686008 0.31469977 -0.23007515 0.11187411 0.088686116 0.1110787 -0.01152426 0.010307202 -0.05629689 0.019952945 -0.21622464 0.1172092 0.30284172 -0.01186688 0.31065726 0.06632587 0.2511418 -0.04494747 -0.01642539 -0.3510857 -0.06398864 0.18568058 -0.021403326 0.021890143 0.080828734 0.14212634 -0.1165584 -0.10145488 -0.1416186 -0.13926205 0.24508432 0.21058787 0.24329251 0.204552 -0.074109256 -0.036034573 0.021614179 0.06067522 -0.044677798 -0.26130393 -0.12341405 -0.15427858 0.07642208 0.116722785 0.12796652 0.36402646 0.048817936 -0.34498474 0.04810639 0.014236978 -0.031918123 -0.19809404 0.17375968 0.43052623 0.15195332 0.09340178 0.007298453 0.25208807 -0.2687547 -0.1918589 -0.366699 0.0762446 -0.35685158 0.051750574 -0.04236086 0.1001813 0.018835068 -0.20358713 0.14275901 0.11415091 0.014556727 -0.005436948 0.0072678844 0.016968515 -0.4299963 -0.28135625 -0.14841062 0.090656325 0.04405994 0.14535558 0.07206661 -0.19590361
223 0.22263114 0.1859883 -0.2633864 -0.14101215 0.08370968 0.001177661 0.099316105 0.011015007 -0.17116149 -0.17837436 0.027080985 -0.10947899 -0.16337436 -0.041868187 0.05671727 -0.10449321 -0.24544749 0.012208572 -0.27291983 -0.10869412 -0.09626784 0.055506423 0.041061588 0.2079223 0.40915412 -0.2820002 0.2619687 0.039758533 0.088596955 -0.086966254 0.07692293 0.050731413 -0.24126017 0.04469293 0.112954155 0.055753227 -0.18128654 0.020823995 0.14076468 -0.23103109 -0.07918592 -0.35010853 -0.19171526 0.38145542 -0.24538107 -0.09024083 -0.080419414 -0.015633022 -0.15043083 -0.05497151 -0.34738567 -0.010225711 0.056174144 0.0880876 -0.0661775 0.06422747 -0.13041738 0.08416746 -0.18937945 -0.03501624 0.14020129 -0.24613999 -0.0065481253 0.12207732 0.29523674 0.12514257 -0.16620713 0.07662526 -0.1893895 0.25701326 -0.04541812 0.06539242 0.01000665 0.24970451 -0.04888081 0.36000925 -0.21973014 -0.117465355 -0.033359364 0.07318003 0.060063213 0.34589726 0.015040606 0.19363731 0.380875 0.047333796 -0.09158285 -0.28113747 -0.12881131 -0.14843346 0.11116401 -0.024186792 0.05866289 -0.07728179 0.27729946 0.25461388 -0.007894423 -0.08080032 0.04880539 -0.22166309 -0.040989753 -0.066468135 0.022487435 0.1271814 0.15048526 0.08358725 0.17006595 0.10086206 0.14444953 -0.12579249 -0.05413656 -0.040183384 -0.14178641 0.007305914 -0.06162575 0.21274674 0.31956452 0.089116514 -0.11500562 0.08751861 -0.00832566 -0.032501996 0.050918825 0.06606898 0.21172221 0.09382031 -0.20761412 -0.09839811
144 -0.06712718 -0.059252333 -0.20275632 0.19414407 0.19779919 -0.13727447 0.19718257 0.0648224 0.0083976565 -0.24424383 -0.29498035 -0.29984832 0.04055214 -0.046424076 -0.05174385 -0.38222724 -0.13275285 -0.094235726 -0.32587138 -0.06398414 0.09033714 0.09170576 0.14724712 -0.30048293 0.14413056 -0.0086278 -0.03841741 -0.12815075 -0.27723342 0.13817464 -0.1261873 0.083400585 -0.16271777 0.34466836 0.2247101 -0.011852591 -0.20760429 -0.031594645 0.2848394 -0.16960879 -0.15249182 -0.13228117 -0.17974736 0.21668291 0.124781616 0.117535606 0.0052174698 0.21263787 0.015301843 0.030550359 -0.19489379 -0.014510456 -0.031509522 -0.24854483 -0.0131227 -0.28971383 -0.31901628 -0.05843515 -0.04897706 0.30783448 0.39007187 -0.29705968 0.1067735 0.20508286 0.15470856 0.21400778 -0.06509762 -0.01608216 0.16434902 -0.06994185 0.03022197 -0.34364685 -0.06007792 -0.07432786 -0.18006296 -0.047171682 0.19314128 0.10174058 -0.4293871 -0.2573087 0.030376226 0.25647208 -0.04332696 -0.08345729 -0.19275136 0.07057029 0.07465421 -0.14046025 0.15005073 0.07160218 0.3102339 -0.053521633 -0.45224229 0.034026787 0.008378911 -0.17681262 0.28583843 -0.053419866 -0.13607205 0.33691823 -0.38685894 0.019439839 0.19841905 0.16320038 -0.15161388 0.18912055 -0.19799587 -0.03820742 0.008267486 0.051424492 -0.11723642 -0.03449502 -0.00039764968 -0.13590206 -0.067148045 0.32281342 0.027409287 -0.34231105 0.17114636 0.22874796 0.0005850665 -0.11901349 -0.29973313 -0.11868747 -0.05069643 -0.21350993 -0.23903888 -0.1794852
396 0.039424453 0.02828506 0.046507526 -0.0181902 -0.049845356 -0.19820613 0.15971944 0.1312786 0.21420804 0.04833805 -0.08762494 0.065981336 -0.38544077 -0.47488472 0.34958065 -0.06284366 0.33875456 0.15760721 0.015775733 -0.05505621 0.22653766 -0.061818585 0.08682817 0.06565547 0.19345832 0.1657595 0.08756562 -0.036787957 0.05907244 0.35050735 -0.078766346 0.3391072 -0.094980195 0.23485737 0.1131626 -0.14943434 0.018960647 0.072522804 -0.19007595 0.059106853 -0.20119506 0.0005267089 -0.020955399 0.16985358 -0.25839314 -0.16558968 0.100276805 -0.14090797 0.19203071 0.098129295 -0.12150419 0.06421589 0.06454003 -0.2856778 0.2263895 0.015239959 -0.064108975 0.15029569 0.26906002 0.054167565 -0.21409597 -0.23519136 0.08229682 -0.076383434 0.26466894 0.24905814 0.07379043 0.042250123 0.04559791 0.4087845 -0.03526291 0.15722768 0.28366485 -0.10745989 -0.11521811 0.3249101 0.105256 0.16417952 0.5663439 -0.11007417 0.07397293 0.25836593 -0.121678196 -0.10386092 -0.36057353 0.07601222 -0.14364782 0.17016669 -0.17003413 0.029748604 -0.13587062 0.1252742 0.10423054 0.13523008 -0.101887874 0.17853469 -0.29270574 -0.25059184 0.056690533 0.037523527 -0.17766455 0.03673268 -0.0744168 0.037528057 0.092249714 -0.019947065 -0.12689546 -0.09256527 -0.34871098 0.29857314 -0.08219181 -0.19073002 0.073455304 -0.13134411 0.2847238 0.21783903 0.18438913 -0.10136737 0.12690161 -0.22371109 0.084791675 -0.20141755 0.08735436 -0.040724136 0.05774694 0.08808074 -0.33254823 -0.07572026
484 0.04781385 0.23247744 0.06933378 -0.07016985 -0.015859304 -0.034463983 -0.06464561 -0.025078828 0.2647814 -0.06681699 0.037398115 -0.21522485 -0.15377681 -0.11158892 0.0013510808 -0.08213242 0.009871394 0.26867324 -0.1805365 0.07244725 0.109321326 0.06543195 -0.0043078144 -0.020133976 0.20125821 -0.21859221 -0.014493412 0.008170545 -0.13705721 -0.21613562 -0.09409642 0.021386947 -0.06325445 -0.05229812 0.2666358 0.11591258 0.17084666 0.082012884 0.08303153 -0.02940058 -0.09782024 -0.46800965 -0.11464171 0.035096668 -0.18679462 0.10466845 0.05823925 -0.005316039 0.19409701 -0.01175107 -0.15234828 -0.018362124 0.13021919 -0.1235105 0.10062411 -0.2070189 -0.12543721 0.05246995 0.15340135 -0.24707268 -0.031797506 -0.15328121 0.09599112 -0.070846334 0.021799672 0.0045486046 -0.024599083 0.059696797 -0.070925795 0.30997813 -0.27840537 0.025846051 0.15781951 0.12659146 -0.09571666 0.22972123 -0.13689162 0.1654518 0.17203361 0.09275222 0.03695431 0.14872955 0.13751853 0.12369453 -0.16408904 0.37006614 -0.0888983 -0.111174926 -0.08841898 -0.069707885 -0.21769008 0.02251952 0.100698225 0.31930393 -0.10835232 0.0064029233 0.00476385 0.18000078 -0.08554077 -0.10952774 0.024230773 0.24558933 -0.1537518 -0.07941642 0.048852693 -0.048455562 0.15070212 0.10663346 -0.053576905 -0.005645242 0.15393133 -0.19789752 -0.17154387 -0.14914767 0.13084894 0.17780481 0.09165851 -0.063968435 -0.013440985 -0.014263602 -0.07783413 -0.044418134 -0.15064597 0.07316091 0.20271644 -0.05979329 -0.20004353 -0.1456675
98 0.104884796 -0.0128250625 0.07452945 0.1903069 0.05118371 0.05066256 0.012584535 0.12571059 0.13683833 -0.05132807 -0.12234455 -0.14430308 -0.08030248 -0.11354269 -0.0291598 -0.102015585 -0.09310828 -0.008908954 -0.09265788 0.06848431 -0.21806131 -0.07010645 -0.17052571 -0.119945265 0.22025187 -0.15343483 -0.044331703 -0.053502485 -0.16098393 0.18049662 0.19554251 -0.09658693 0.11895152 0.1384634 0.16378088 -0.06695156 0.118597865 0.062380683 0.16470425 -0.09602182 0.19514424 0.0141419545 -0.03078635 0.19223082 -0.17156729 -0.111320265 0.021491878 0.03527614 -0.11141005 0.049639203 -0.021539146 -0.015470285 0.046010844 -0.054184612 -0.009171436 0.02787149 -0.04558558 -0.15230836 0.035664488 0.06196412 0.117067866 0.006671215 0.013226258 -0.08205485 0.026824353 -0.0061585573 -0.2373519 0.14788458 -0.10980849 0.04415716 -0.05642895 0.15832707 -0.27551755 -0.04006915 0.08760851 -0.018626928 0.14145377 0.3111152 0.13208765 -0.038178865 0.077264905 -0.036793932 -0.2864512 -0.21858095 -0.054927178 0.08981965 -0.00926857 -0.2324282 -0.07812968 0.09549612 -0.044368606 -0.10669314 -0.044750992 -0.011306985 -0.18129246 0.30265564 0.09992048 -0.17606305 -0.21259543 0.004130931 -0.09836924 0.262606 -0.056165442 0.14971945 0.053643722 -0.048128884 -0.19896907 -0.009586958 -0.2562544 -0.23947805 0.060762282 -0.08811667 -0.1710374 -0.11749495 0.0018524382 0.23401543 0.14291255 -0.07929248 -0.08248252 0.047590233 -0.14352657 -0.16792625 -0.12318978 -0.11624084 0.16711245 0.12388371 -0.06689419 -0.09272933
224 0.16112195 -0.15953264 0.073417656 -0.027550427 -0.061006196 0.14165701 -0.10998511 0.070811175 0.09235128 -0.2717347 -0.13845198 -0.05845086 0.011636338 0.07711408 -0.06780114 -0.18574664 -0.06654774 -0.088494666 -0.10417201 0.07066788 -0.038675558 -0.20575413 0.011720131 -0.16535075 0.24256907 -0.17538396 0.016596299 0.12577894 -0.10024019 0.09133719 0.06322802 0.12670082 -0.021671461 -0.07075126 0.12981535 0.12369561 -0.26544842 -0.034558218 -0.10792917 -0.082576215 0.046172157 -0.30406666 0.0051713884 0.34772235 -0.15000439 -0.0029753365 0.13657147 -0.20387903 -0.11355736 0.04642579 0.032319617 0.080149904 -0.10114697 -0.11072178 0.16129857 0.0072366484 0.01507664 0.17479679 0.011792066 -0.21516895 0.21813683 -0.11383925 0.03592255 0.13137498 -0.16999015 0.108307734 0.058788013 0.13707614 -0.21035035 0.20808993 0.16083448 -0.00996897 -0.16070071 -0.0028903203 0.0068072006 0.014303845 0.10125376 -0.009504834 -0.028105296 0.18677318 0.1982569 0.07916282 -0.30454516 0.043423057 0.005747558 0.08778111 -0.099947296 -0.05712523 -0.04976457 -0.11224301 0.18286571 -0.040861752 -0.2583877 0.17109266 -0.3205445 0.31439623 0.085840896 -0.0037826893 -0.15472804 -0.13259749 -0.056430474 0.16378494 0.052686878 -0.16820438 0.21497133 0.05456442 -0.18254408 -0.036882054 -0.35871944 0.023794748 0.025543554 -0.07595069 -0.08499713 -0.047618303 0.07290304 0.1789345 0.23171714 -0.013240682 0.014923762 0.057523508 0.0754709 -0.1582058 0.07601083 -0.23434299 0.050631087 -0.086080745 -0.30502903 -0.009329547
308 -0.110127136 0.28989574 0.19350162 0.008620787 -0.116953515 -0.23772876 -0.101011455 -0.08634242 0.46247655 0.0046887305 0.122563764 -0.3461888 0.024154915 -0.1033233 0.2130514 -0.1456637 -0.28036398 -0.22170214 0.025971886 0.0735296 0.06418791 -0.26050493 -0.16942109 -0.19044635 0.29317722 -0.12769476 0.119347274 -0.120672345 0.08111733 0.12579402 -0.076322824 0.054942757 -0.026124734 0.22466883 0.1646344 0.12847291 0.12725958 0.17876756 -0.00506729 -0.12850462 -0.21162969 0.053695098 -0.045148037 0.10961287 -0.27885458 0.0035071098 0.23963852 -0.09362909 0.22191817 0.17137232 -0.15966402 -0.11458048 -0.14872141 0.00012931786 0.04728029 -0.14066045 -0.30652437 0.20917158 0.06708065 0.28841162 -0.059002344 0.017589731 0.12455169 0.11594184 0.20195572 -0.082533754 -0.43414608 -0.112750076 -0.16220905 0.13593477 -0.13930653 -0.17196721 0.14208734 0.04415475 -0.3871909 0.042809848 -0.2233415 0.1580598 0.14062917 0.079123825 -0.24861446 -0.04965374 -0.036838263 -0.05925846 0.14271821 0.1099906 -0.06692574 0.0065527414 0.023792434 0.17952946 0.26588777 0.023993915 0.20528123 -0.06428379 -0.22506326 0.042263363 0.17915791 -0.059120756 0.09577033 0.17091736 -0.40927026 0.086201854 0.017977199 0.10224283 0.10368038 -0.25795767 -0.081725955 0.027622962 0.026328776 0.099127986 -0.1384521 0.1094494 -0.13460091 -0.18578675 -0.0018834756 0.1196095 0.095281646 -0.09478114 0.017744955 0.0986905 -0.01177046 -0.0671978 -0.14194454 -0.14917764 0.062059034 0.13266829 0.03539274 -0.15124096
13 0.095481806 0.05379832 -0.2328125 -0.2583755 -0.10212614 -0.17397346 -0.100454144 0.082038596 0.23319492 -0.15778315 -0.18383081 -0.028293082 -0.114804834 -0.12838714 0.27232754 -0.2748895 -0.26682642 0.1710803 -0.042930275 -0.19741957 -0.012890896 -0.2868009 0.03242117 -0.12929578 0.17886242 0.06814923 -0.24378224 0.13083911 0.14800724 0.018924905 -0.17218965 0.35245934 0.1733885 0.22336575 0.0059633227 0.13107285 -0.27828872 0.015515495 -0.06807746 -0.37159893 -0.20325114 -0.09777721 0.055338915 0.43738738 -0.2746101 0.061145037 0.08510629 -0.053152923 -0.22989286 0.06406858 -0.022599276 -0.15833615 0.106726944 -0.30035847 0.23097655 -0.047175866 -0.26748905 0.20409556 0.23475935 -0.06938287 -0.1431805 -0.04920447 0.18753392 -0.060387522 0.057555124 -0.0057570627 -0.23049346 0.2551107 -0.06779895 0.11907351 0.018643554 -0.020823272 0.09511937 0.17591025 -0.09683543 0.23142152 0.023516918 0.17201884 0.2370997 -0.2022721 0.040959645 0.17601638 -0.059036206 -0.24508597 -0.10030087 0.1979796 -0.12261112 -0.3281132 -0.1480769 -0.067334145 0.15788509 -0.052878104 0.04819307 0.20081188 -0.21119456 -0.009929003 0.0035096952 0.07708778 0.13746648 0.07270835 0.07345055 -0.19988334 0.08796843 0.036797415 0.08720917 -0.28332108 0.056637727 0.12765731 -0.095346764 0.2033951 0.07109866 0.09242076 -0.111865 -0.015613644 0.095229775 -0.18717456 0.114227444 -0.20292094 0.13270533 -0.13930145 -0.11584174 -0.07566552 0.06482864 -0.0039765392 0.171207 -0.29290316 -0.3700881 0.12442197
19 0.18532391 0.26866692 -0.071368136 0.019411558 -0.040844742 -0.15295686 0.0719122 -0.019470239 0.12577598 -0.19248222 -0.38195032 -0.07447384 -0.055806436 0.016400827 -0.01939421 -0.10562748 0.053433277 0.03385769 -0.09752845 0.09506527 -0.05113848 0.010224792 0.051370375 0.21785605 0.19658239 -0.03888389 -0.03083216 0.07044158 -0.09268472 0.034465462 -0.08225019 -0.120332696 -0.09177569 0.15222801 -0.08819778 0.026401184 0.15070398 0.11383395 0.09272871 -0.06880185 -0.03671838 -0.2511481 -0.024246406 0.1208979 -0.2141729 0.15704685 -0.012566379 -0.20735972 0.26789024 -0.052858267 -0.30516753 0.085370734 -0.14803225 -0.19232965 -0.13432766 -0.2575011 0.08133535 -0.2364016 0.14284718 0.06412395 0.37878963 -0.11748825 -0.035501264 -0.12572712 0.04108776 -0.13849068 -0.3276331 0.08017661 -0.03505453 0.0667403 -0.07603028 -0.03934697 -0.102191254 0.062297158 -0.14507914 0.14137828 0.14268145 0.16792901 0.26362294 -0.18595338 -0.08412965 0.30329233 -0.24542363 0.064133145 -0.10071208 -0.06182551 -0.24191879 0.08278263 -0.15244903 0.11613835 0.16197535 0.029755535 0.046442956 0.11499223 -0.054535147 0.117695056 0.29371637 0.14374307 0.014825295 -0.18164474 -0.15045013 0.1469513 0.07409786 0.019749906 -0.035604037 -0.06138045 -0.32081553 -0.004476182 -0.1717507 -0.098217204 0.2315181 -0.021741563 0.023934735 0.080659084 0.12833385 0.35447764 0.016057914 -0.030610073 -0.010436404 0.058257304 -0.267927 -0.23228218 0.18736517 0.03896938 0.10932329 0.07715031 -0.26355517 -0.22658207
252 -0.020353582 0.021165827 0.017064182 -0.012206674 -0.2186372 0.13589767 -0.053246114 0.2604717 -0.009106481 0.042195506 -0.18758647 -0.14489697 0.057493627 0.048208628 0.22453046 -0.0023566585 -0.15304379 -0.12651943 -0.06282658 0.17122795 0.34311366 -0.057637084 0.056814857 -0.16972335 0.17263411 0.12122491 0.39948595 -0.00057574414 -0.28511077 -0.0798836 0.0036612572 0.2354838 0.19214348 -0.0340189 0.34402195 0.009631319 0.12407137 -0.0730116 -0.040768784 -0.10534847 -0.2955683 -0.25762612 0.12087707 0.10318077 -0.1260897 -0.027522948 -0.29761457 0.15857488 0.16148223 0.1225076 -0.3556365 0.11042985 -0.10037751 -0.09663676 0.1882478 -0.253149 -0.063150726 0.23983234 0.280839 0.28554294 0.046323366 0.11310153 -0.12128492 0.2062317 0.12835173 -0.22137009 -0.13011244 0.046124924 -0.016455116 -0.010347716 -0.1988695 -0.017707929 0.08288287 0.22338128 -0.19608144 0.23447338 -0.08770229 -0.10429271 0.15029207 -0.06823138 0.082763895 0.10039105 -0.018632464 -0.079206 -0.1426798 -0.023844352 -0.058857612 -0.17663385 0.058131695 0.024610464 -0.06992205 0.15742022 -0.019345118 -0.024395958 -0.26567718 -0.086277016 0.3142143 -0.10955382 -0.24212627 -0.087266445 0.11071846 0.1469193 0.043312572 0.22121046 -0.08109085 0.13626285 -0.10424571 0.1056876 -0.21537904 0.19560497 0.37102735 -0.014934259 -0.19070794 -0.111901894 -0.1028284 0.2166183 0.16908151 0.39419764 0.03543672 0.14987203 -0.02234445 0.06594516 -0.16202232 -0.08651672 -0.06018794 -0.21964242 -0.10632041 0.028240196
373 -0.35038885 0.20779839 0.012909911 -0.07506637 0.09177463 0.033087034 -0.11371116 0.0051363804 0.22352189 -0.14978604 0.11485549 -0.08000185 0.0097363675 0.10411525 0.20580395 -0.09683962 -0.069992095 -0.04507756 0.12856899 0.26083618 0.36034015 -0.075476505 -0.034233358 0.080077596 0.2667198 -0.02695166 -0.031342983 -0.025082106 -0.2817407 0.068555236 -0.30277076 0.02553044 -0.1290104 -0.074687935 0.15699159 -0.022170993 -0.3396255 0.26409885 -0.0070508476 -0.013111367 0.015246626 -0.18128069 -0.26305872 0.24351309 -0.21655875 -0.12468815 -0.12867239 -0.053762343 0.19887148 0.15903418 -0.13314332 -0.13547651 0.06303307 -0.099960215 -0.03176321 -0.12884197 -0.38245302 0.16421904 0.13252515 0.10755669 0.39340687 0.15092163 -0.088925205 0.22247337 -0.0053940094 0.20594783 -0.3372154 0.15944019 -0.11532401 0.09276316 -0.0940879 0.0917618 0.0027673477 0.021578414 -0.08094949 0.16453312 -0.0036275245 0.27811417 0.083519004 -0.03910083 -0.0868079 0.06808285 -0.06955936 -0.113458924 0.18858263 0.13307169 0.13788234 0.18104261 -0.01696035 0.035698045 -0.08417096 -0.062598534 -0.0023181413 0.0060049617 -0.1523477 0.29349655 0.13723935 0.0073790518 -0.14342892 -0.146995 -0.24002579 0.26769432 0.11640438 0.14304404 -0.108521536 0.05172278 -0.09401051 0.26324606 0.006593564 0.052562345 0.10119811 0.063055 -0.14884846 -0.008940083 -0.010174501 -0.2232175 0.12993893 -0.18342423 0.08511332 0.11054896 -0.13731202 -0.0004292926 -0.040026464 0.034107123 0.27599737 0.0038178558 0.005273027 -0.25152043
349 -0.121827185 0.009485221 0.3336204 0.02807613 -0.017342374 -0.41821077 0.033401344 0.18366143 0.15994811 -0.095566414 -0.22718184 -0.03698552 -0.07831972 0.1870783 0.09561869 -0.20228857 -0.009726426 0.28232136 -0.17645049 0.035002798 0.19094415 -0.07550963 -0.09519836 -0.38539165 0.05072214 -0.23273028 0.18918252 0.041019514 0.112216994 -0.059131145 0.19561723 -0.14839679 0.22084981 -0.0138391135 0.11522763 0.24732457 -0.10867541 0.056418654 0.23448697 -0.2990645 0.08251461 -0.22781986 -0.0694276 0.13123256 -0.16308802 -0.10668739 -0.009306748 0.13885447 -0.082589254 0.11357573 -0.49895337 -0.20117736 0.07139632 0.13033025 0.050434783 -0.21095312 -0.1278497 -0.13473384 0.1645281 0.2372394 0.10307701 -0.16924238 0.008047775 -0.05689553 -0.11121888 -0.060368475 -0.17834567 0.22508886 0.18372352 -0.14738008 -0.004803521 0.22225937 -0.2351163 -0.17476921 -0.25810632 -0.022520619 0.21127015 0.13056217 0.11781762 0.037950337 0.3300869 0.053608723 -0.0669201 -0.10932341 0.09524997 0.24876617 -0.11359208 -0.05943039 0.012549867 -0.03927024 -0.19709943 -0.17478332 0.32311592 -0.1225337 0.17277837 0.3725537 0.15458404 -0.06366695 -0.061986376 0.17019406 -0.030136285 0.33811527 0.16562347 0.13462359 0.33665848 -0.04501034 0.1714065 -0.093758605 -0.3321929 -0.15040225 -0.12683128 0.095365934 -0.37094787 -0.19420865 -0.052708227 0.08098556 0.13561767 0.045316372 -0.016272668 0.09182113 0.0043481668 0.069056824 -0.10931161 -0.08877404 -0.032575864 -0.07646811 -0.11037995 -0.27594724
236 -0.06930817 -0.0008307444 0.20044418 0.1702593 -0.2157761 0.34934792 -0.11692134 0.0444844 -0.010614126 -0.24182698 -0.04552206 -0.0139030265 -0.10082061 -0.173489 0.07464861 -0.09837683 -0.15032326 0.18058324 -0.34262165 0.17982565 0.36118814 0.11207283 -0.096927345 -0.37472957 0.23589703 -0.27357924 0.037178215 0.084852934 -0.12668318 0.02617858 -0.16776389 0.27658683 0.32984462 -0.025604755 0.46655455 0.27893066 0.016334075 -0.0649326 0.1376621 -0.30216968 -0.23818907 -0.0441305 0.068587966 0.10108277 -0.29457083 -0.04187521 0.14146216 -0.04063131 0.07101769 -0.41432828 -0.04129769 -0.1811234 -0.13269942 -0.12884836 -0.055881444 -0.31962857 -0.3303888 -0.005212196 -0.09927347 0.024045996 -0.0080987755 -0.12986094 0.1163744 -0.19541554 0.12496687 0.026235847 0.051877316 -0.28856993 -0.16834939 0.1889422 0.030182108 0.008523412 -0.075412326 -0.24578878 -0.0026171452 0.1254458 -0.057684004 0.112234786 0.4373951 -0.11112105 0.0020512221 0.032259256 -0.108957216 -0.01801576 -0.047019236 0.26746625 -0.22858417 -0.062755175 0.28684437 -0.071084164 -0.044886142 0.07471356 -0.20668566 0.07376672 -0.06795487 0.031569745 0.058936846 -0.09641054 0.004182405 0.13449101 -0.33002287 0.18062294 0.010568236 -0.015776873 -0.28111312 -0.26360562 -0.015247953 0.07606784 -0.38398567 0.053299002 -0.35773528 -0.17587969 -0.2745622 -0.18672639 -0.027628478 0.26694116 0.1857862 -0.19902128 0.001232258 -0.19289118 -0.10838942 0.12863582 -0.2507149 -0.1504033 0.24024944 -0.04114043 -0.08487076 0.0024857714
538 0.0637019 0.04828554 -0.16491808 -0.1523043 -0.08924766 -0.1361414 0.103074364 -0.048152056 -0.018540846 0.105502814 -0.02985749 -0.1680936 -0.22402078 -0.2761777 0.11320844 -0.14249222 -0.04905343 -0.11541342 -0.024424497 0.016146045 0.023035176 -0.029602407 0.15040721 -0.1885381 0.35749054 -0.2860059 -0.09117042 -0.055130202 -0.30825642 0.40970373 -0.18457058 0.05897341 0.009746753 0.0780016 -0.12982005 -0.17688994 -0.19532478 0.40253177 0.00601049 -0.15826164 0.018283915 -0.31655368 -0.2909166 0.29635412 -0.03963913 0.12963271 -0.05105394 0.059038177 -0.10756516 0.16744876 -0.14331529 0.17393206 0.049988404 -0.09072355 -0.13627896 -0.21646354 0.0102987075 -0.13780989 0.0816755 -0.015328796 0.23673652 -0.08521921 0.0784144 0.17994912 0.19916347 -0.019034168 -0.12798013 0.44695494 0.014798084 0.3305648 -0.39164495 0.20797347 0.24301822 -0.15657727 0.002178959 0.32124594 0.06964273 0.09490928 0.18838933 0.004968791 0.18898386 0.30334672 -0.06053501 -0.09507677 -0.08124235 -0.023664476 0.0884835 -0.12892634 0.09271733 -0.08413485 0.21275432 0.026618643 0.20138626 0.025926627 0.041464087 0.059276737 -0.22049947 0.29649368 0.025319122 0.041582376 -0.19802934 -0.14527118 -0.026047524 0.039450653 0.1459196 0.12712047 0.18779191 0.024637518 -0.22208776 -0.09853365 -0.012289726 0.012746445 -0.007737391 -0.13799423 -0.15506697 -0.04076209 -0.001663512 -0.13277452 0.28371906 0.057913627 0.18505274 0.17161481 -0.12998477 0.18078364 -0.057842355 0.023706134 -0.15351813 -0.20896511
103 -0.03673371 0.12726632 -0.13984786 -0.047938123 0.1469684 -0.19394127 0.2497874 -0.39224073 -0.013806336 -0.007098584 -0.14233685 -0.28256005 -0.32679117 0.01385155 -0.109887205 -0.08931631 -0.26725066 0.058787182 -0.040033378 -0.22027105 -0.069742724 0.070539184 0.008995441 0.061059095 0.1507661 -0.01778557 0.00027723773 -0.060131505 -0.27123827 0.29667136 0.0414479 -0.14142981 -0.11586349 0.09123532 0.034165226 -0.089588106 -0.031211654 0.16336018 -0.020404536 -0.12333933 -0.038916435 -0.06876793 -0.005200019 0.19050835 0.05399819 0.07430904 0.010325474 -0.16821302 0.4942013 0.108587794 -0.058574304 0.1250486 -0.15003507 -0.010542627 -0.14552857 -0.041556105 0.15810859 0.017752113 0.1893808 0.020262966 0.11471029 -0.16001916 -0.12861535 0.19265652 0.045494206 -0.2941901 0.1643882 -0.04765208 0.06401407 0.21596378 -0.04403198 0.16030692 -0.06620431 0.33891743 -0.08356392 0.24411044 0.06908691 -0.08624018 -0.13899027 0.25334802 0.2989964 0.076213256 0.12116628 -0.014594924 -0.14852807 -0.05053635 0.13743976 -0.23576596 0.26089552 -0.1721075 0.45860168 0.026611125 0.07967794 0.09575392 -0.033889696 -0.12864944 0.17325619 0.044896185 -0.1328744 -0.05466895 -0.1347768 0.20012836 -0.21095136 0.014771005 0.17829205 0.04571604 0.088929124 0.19785935 -0.116609894 -0.16866721 0.046066165 0.08548972 -0.21552788 -0.22679599 0.12092946 0.25774258 0.36775956 -0.12739065 0.47438902 0.10594239 -0.06394242 0.065502465 -0.2625039 -0.1367348 0.08470823 0.17935306 -0.38402382 -0.1737328
14 -0.046367124 -0.0030898897 -0.042515013 0.04778883 0.10975618 0.21431099 -0.20856255 0.0033509359 0.2836504 -0.029489592 -0.04381615 -0.20312962 -0.14877017 -0.18563725 0.12135233 -0.056339063 -0.097996555 -0.16522725 -0.05575052 -0.2931675 -0.12226217 -0.21046886 -0.061636493 -0.016183922 0.04864476 -0.2563519 -0.046721436 -0.24921522 -0.09969327 0.009502204 0.17998293 -0.16279559 0.026441852 0.18591034 0.08257211 0.0014224118 -0.13035657 -0.10268556 -0.06036517 -0.040502127 0.15784946 0.17389157 0.046688586 0.0741297 -0.0221012 0.02719609 -0.017539121 -0.023520643 0.1259883 0.017357161 0.16700265 -0.07662674 0.12412152 -0.14260046 -0.02838242 0.07914379 -0.20729697 -0.10933475 0.33911613 0.103672706 -0.0054993276 -0.25047877 0.07293318 0.16819184 0.03472063 0.08117512 -0.16219993 0.08481622 0.068109185 -0.0016157066 -0.029655961 -0.027646147 -0.28557524 0.26180506 -0.0705116 0.21430703 0.12654832 0.4157335 0.1419804 -0.028086284 0.12595716 0.36232242 -0.010356937 -0.08254066 -0.13401572 -0.19542223 -0.2244968 -0.20783678 0.0804892 0.17725699 0.07619786 -0.15524156 -0.20084277 0.013396626 -0.043683607 -0.05432424 0.14360368 -0.14270474 -0.17304082 -0.092723325 -0.10700793 -0.008465642 -0.16170985 0.15460548 0.045369923 0.038796417 -0.08167725 0.18490872 -0.27343398 -0.17066875 -0.057143282 -0.039608646 -0.058021497 -0.10562506 0.2952179 0.06735305 0.24764699 -0.22221372 0.0657881 -0.011816937 0.036961496 -0.28616536 -0.10719447 -0.004974113 0.035261817 0.2324012 -0.13511989 -0.043724604
471 -0.019700382 -0.015628058 0.21343347 -0.2202859 -0.0636742 0.00032741998 -0.036961075 -0.023434425 -0.15814312 -0.42175874 -0.50474447 -0.20335758 -0.15352541 -0.10943136 0.13915108 0.0567413 -0.043775827 -0.2595788 0.0048374557 -0.020734195 -0.101299316 -0.16706888 0.24619292 -0.44718337 0.36357147 -0.37844515 -0.13530326 0.014445907 0.08728915 0.3237479 -0.27807677 0.1747883 0.11929776 0.11142383 0.19023111 0.13043895 -0.10698048 -0.018505802 0.21920782 -0.3372526 0.110543795 0.03545129 -0.06907269 0.26474386 -0.18918143 -0.027942069 -0.0652075 -0.21557851 -0.24419995 -0.28166282 -0.27886778 -0.32057604 -0.12288713 -0.06381951 -0.08668231 -0.119523086 -0.12489687 0.17937943 0.12170198 0.11384026 0.3338793 -0.28698623 -0.3406434 0.17039365 -0.09420403 -0.002378511 0.19234547 -0.11432376 0.012842207 -0.02831771 0.09728499 0.05521748 0.3131424 0.10505442 -0.09725089 -0.23856628 -0.06807073 0.0007655781 0.10646708 -0.12782533 -0.1711713 -0.105168134 -0.13982889 0.07536514 -0.2209067 -0.059803236 -0.032804262 0.03311547 0.07811377 -0.03429076 0.16947612 0.009409178 -0.34839344 -0.007252649 -0.036325417 0.12540972 -0.06641804 -0.09127682 0.03545615 0.0938362 -0.41356045 -0.030874044 -0.0031950865 -0.04540256 -0.064018175 -0.07449971 -0.23299308 0.18854634 -0.2709626 0.12767747 0.31532988 -0.18328425 0.013506744 0.020337112 -0.061408482 0.28842467 0.16243094 -0.27641115 -0.020528529 0.30726457 -0.13618818 -0.013263531 -0.052945543 -0.08535453 0.11786902 0.05738539 -0.12577696 -0.08168982
533 -0.03257715 -0.00358503 -0.045365963 0.13355501 0.03781376 -0.044473004 -0.14388567 0.03362771 -0.24042812 -0.2571415 -0.3567658 -0.04717957 -0.05801422 -0.03312253 -0.16611592 -0.12748496 0.03267114 0.11528818 -0.14441675 0.0050290218 0.11411126 -0.007666176 0.10770154 -0.064658545 0.100393176 -0.23822176 0.03385566 0.25576076 0.02474144 -0.06339816 -0.07866931 0.1876133 0.15980898 -0.09041372 0.15489744 0.14171122 -0.15882711 0.04882415 0.3341158 -0.21290627 0.023720967 -0.32280326 0.21287766 0.36367333 -0.122073874 -0.10017708 -0.11956711 -0.025127543 -0.27456763 0.07176298 -0.21940443 -0.13762023 -0.041490145 -0.1991078 -0.090553455 -0.4831478 0.015268811 -0.020931242 0.15294816 0.23775548 0.23065384 -0.24729002 0.071303405 0.015642751 0.12556665 -0.11414396 0.20841669 0.16761847 -0.20261513 -0.052214023 -0.15568177 -0.11693837 0.0767807 -0.075654514 -0.07871227 -0.06151612 0.020992516 0.08698041 -0.08677236 0.28812966 0.0070779454 0.09120014 -0.21490425 -0.16153331 0.029427242 0.19339629 0.048310593 -0.31398353 -0.044306606 -0.3008881 0.0033623285 -0.018024368 0.04790878 0.12154203 0.1708484 0.24550085 0.01860479 0.25711665 0.011192298 -0.021819972 -0.36931977 0.016638473 0.12953834 0.07808103 -0.07617073 0.058576178 -0.16211665 -0.06005334 -0.3627049 0.060750093 0.13151848 -0.08732626 -0.14372054 -0.3978456 0.3528436 0.080060564 0.012118849 -0.17923547 0.08066238 -0.021040509 -0.13343285 -0.051396515 -0.1794734 -0.21917291 0.026191996 -0.05955097 -0.37010074 -0.15547593
355 -0.33648545 0.018971268 -0.114330456 -0.31083322 -0.16686037 0.08987249 0.036583155 -0.0842603 0.030031182 0.03253485 0.17831674 -0.29408136 -0.16380894 -0.14602022 0.25959185 -0.35038832 -0.032206975 0.021429928 -0.03506014 0.110415936 0.36865678 0.015809689 -0.22319433 -0.24101733 0.1833008 0.0824827 -0.08472527 0.0019055677 0.0059778714 0.08864964 0.017313426 0.18210478 0.052646305 0.12501839 0.23664723 -0.07169541 0.20610331 -0.13921672 -0.1763018 -0.11158306 -0.1086747 -0.058131076 -0.14589281 -0.0895492 -0.37536898 -0.2148583 -0.04639333 0.06691709 -0.08676007 0.20333444 -0.13098846 0.36935303 0.04254284 -0.28496894 0.13609022 -0.11066514 0.037613958 -0.069694445 0.3692304 -0.11723043 -0.007943162 -0.012384454 0.069728635 0.09636173 0.15549691 0.08836352 -0.22695653 0.01606537 -0.15708923 0.08752957 -0.06542148 -0.06404088 -0.13974702 0.015741449 -0.2823352 -0.07056215 0.011326721 0.08575649 -0.03045213 0.05832381 -0.13224734 0.29173616 0.21368545 0.12777705 0.07091409 0.09612886 -0.20847744 0.05253444 -0.08647256 -0.060536705 -0.15369003 -0.11011632 -0.06812852 -0.014800154 0.025592854 0.24046554 0.147731 -0.32505926 0.037066065 -0.092750125 0.20530984 0.19033496 0.003066914 0.061895143 0.046041183 -0.05273279 0.21409808 -0.077585466 -0.04887513 0.24790429 0.11546823 -0.30207255 -0.035089172 -0.09408886 0.21341419 0.037375763 0.43324536 -0.02645032 -0.19369316 -0.0042400737 0.01475748 0.05211399 -0.07687098 -0.019581383 0.16280805 0.14900313 -0.16477698 -0.25696778
314 0.12034155 0.2926982 0.0741077 -0.069514416 0.04774663 -0.046723645 -0.08168383 -0.084226966 -0.044080578 0.107589 -0.045245714 -0.2880188 0.07339047 -0.03716073 0.2803608 -0.024765091 0.16059716 0.20253846 -0.20754068 -0.069233626 0.06145621 -0.14653854 -0.3163635 -0.1535895 0.16460836 -0.16243489 0.025575498 0.0826766 -0.0052102865 0.1524896 -0.09408461 -0.21278015 -0.020658586 0.26039302 -0.074012846 0.1291699 -0.042320423 0.079017706 0.21250005 -0.47178864 0.19290194 -0.2903858 -0.138832 0.33271173 -0.21258649 0.110193186 -0.060043536 0.02085306 -0.026631849 -0.055883482 -0.08377432 -0.04329064 0.10792766 0.1966533 -0.11607764 0.037765957 -0.21016172 -0.11935535 -0.022363894 0.24689756 0.1770089 -0.10606371 -0.112618156 -0.025701018 -0.17503369 -0.03292826 -0.13359417 0.21986312 -0.05326251 0.08409955 -0.16146474 0.30050305 0.20932989 0.03232235 -0.18865189 0.001923905 0.20218486 0.24883518 0.13134885 0.19453906 -0.08446038 0.06680812 -0.055392023 0.07470116 0.16166814 0.07253239 0.010200551 -0.0371515 0.2025769 -0.20418906 0.118378215 -0.050482444 -0.037716813 0.036037475 -0.115223564 0.16882122 -0.11988415 0.100097544 0.03167925 -0.01746913 -0.041625623 -0.018491473 -0.32543254 0.0057754875 0.06095868 -0.26578668 -0.08136895 0.09450328 -0.24618329 0.030236235 0.1485647 -0.090110645 -0.3068502 -0.33904213 0.40409032 0.2275381 0.2681195 0.008062935 0.14413303 0.025864845 -0.13322333 -0.00010202815 -0.04047935 -0.083515026 -0.11619952 -0.013486628 0.26389283 -0.101531915
62 -0.2425884 0.16000088 -0.25677618 -0.044847175 -0.024255406 0.12816556 -0.05233436 -0.07608462 0.042290125 0.1000551 0.012428709 -0.10305316 -0.13493569 -0.14443664 0.04234135 -0.079136156 -0.013471237 0.2758908 0.0019021264 0.23316912 0.1448267 0.061300334 0.212195 -0.2453181 0.13479094 -0.064340085 -0.033088706 0.19198747 0.024838895 0.1706401 -0.18057176 0.020605976 0.024375351 -0.01278617 0.10598202 -0.08864431 0.112795986 0.15906012 -0.0160955 0.15187757 0.047918774 -0.09781798 -0.08966475 0.30232146 0.05718188 -0.25481743 -0.2211454 -0.17494307 0.2175758 -0.12599504 -0.03657393 0.006714797 0.15474764 -0.07183509 0.013726027 0.18919754 -0.11531192 0.106789894 0.007959014 0.0139842965 0.19712937 -0.09835433 -0.13470015 0.011642316 0.1808994 0.056271665 -0.00787477 -0.01443214 -0.09379458 0.28586537 0.19374336 0.095311046 -0.03265367 0.039040044 -0.0466609 0.10731497 0.22895196 0.12538832 0.1194046 -0.093049385 0.1031553 0.25890738 0.18584535 -0.08636491 -0.052017275 -0.027308365 0.030905835 0.021994917 0.13852721 0.16951616 -0.02895943 -0.13930541 -0.22219625 -0.05430916 0.026939442 -0.05703687 0.37604672 -0.010292613 -0.028727815 -0.120262556 -0.024883574 0.14104764 -0.1305775 0.07880269 0.043302517 0.023418576 -0.14919107 0.14160082 -0.16394635 -0.10196488 -0.11368356 -0.17198762 -0.04593881 -0.18271936 0.26188746 0.26522556 0.31975543 -0.029255763 0.08000169 -0.012483929 0.10899116 -0.09047745 0.038271997 -0.39097208 -0.05792877 -0.09895235 -0.3682756 -0.16192336
336 -0.11295655 0.27542892 0.038358305 0.20775643 0.15024379 -0.037579063 0.007872465 -0.04171434 0.045491744 -0.042420767 0.07307261 -0.24742135 -0.034161337 -0.27893412 -0.19322684 -0.11754654 0.056794867 0.10266568 -0.04400313 0.025437267 -0.006440221 -0.19362946 0.08022994 0.032551367 0.39984003 -0.24936943 0.12652016 -0.14039735 -0.072717234 0.17047925 0.107231 -0.051509038 -0.0741786 0.1769744 -0.07168801 0.07116956 0.024145491 -0.2488472 -0.07546233 0.10558504 0.12063494 -0.1261382 0.12527953 0.08408253 0.13564336 0.1543339 0.091080904 0.060972735 -0.14246878 -0.08446763 -0.13669062 0.15393512 -0.04317712 0.050534993 -0.08288199 -0.14053227 -0.20636758 0.09670986 0.2243254 -0.0909991 0.002825442 0.09704774 -0.05720493 0.2325112 0.21654691 -0.2488422 -0.013784778 0.028116949 -0.15001273 0.5093269 0.027247053 -0.15169121 0.16209102 0.21336569 0.04695214 0.27948794 0.032564126 -0.0060909167 0.025380146 0.258803 0.0825236 0.18565509 0.12905894 0.114128456 0.22874232 0.016500922 -0.20268437 -0.2562421 -0.16196465 -0.035600718 0.14299795 -0.18555138 -0.03473624 0.089443594 -0.016755996 0.27187756 0.15562865 -0.09652012 -0.13211372 -0.29119307 -0.22389479 0.35845304 -0.033677414 0.25195307 0.16180539 -0.038870007 0.26951587 0.10749555 -0.16758159 -0.13599773 0.072866075 0.14200816 -0.09986404 -0.2713131 -0.0057908813 -0.008398437 0.20433699 0.12289995 -0.106782176 0.105505995 -0.014061689 0.0383133 0.009329867 0.18494283 0.20745032 0.10574622 -0.17527308 -0.090868555
92 0.082965195 -0.011423568 -0.07031894 0.0048088785 -0.15543666 0.19043116 -0.17899321 -0.015028644 0.041998915 -0.11720722 -0.060662735 -0.06522988 0.020144913 -0.018969558 -0.16482575 -0.15603091 -0.21430506 -0.09285146 -0.07509217 -0.08566789 -0.05874304 0.061919767 0.112671524 0.023977594 0.10934042 -0.19135076 -0.14895548 -0.08751963 0.01741034 0.17452532 0.13151069 0.030196076 0.08227338 -0.026632925 0.18001457 0.0013122367 -0.060862653 0.07784048 -0.01618047 -0.10147323 0.11775118 -0.04604005 -0.10675059 0.05984814 0.011124362 0.14042893 0.04408916 0.027965058 0.059104685 -0.039484605 -0.10166355 -0.110954046 0.13390365 -0.03311737 0.10601233 0.06475245 -0.0734953 -0.22709413 0.025588676 -0.020497147 0.058580514 0.0917723 0.072266385 0.069277465 -0.017663961 0.13976268 -0.2881859 0.1371752 0.15126291 0.005850076 -0.12818715 0.10903544 -0.011866455 0.25525996 0.079982825 0.09743566 0.11280523 0.1938479 0.06583587 0.04207091 0.09182134 0.29171404 0.03353886 -0.104156494 -0.23511419 0.03092481 -0.1110227 -0.20179765 -0.08128427 -0.03590904 0.07343766 -0.07108194 -0.03214558 0.0012860021 -0.07900776 0.09708465 0.19421767 -0.17817982 0.020459363 -0.1348389 -0.0022700392 0.20819429 -0.070622705 0.121211246 -0.12140096 0.014600711 -0.12859543 -0.04466696 -0.13378005 0.005962528 0.1297316 -0.14473215 -0.2843321 -0.08888054 0.21600732 0.17786574 0.03790365 -0.09618012 -0.036961142 0.024907008 -0.10330272 0.02337687 -0.017366953 -0.043320205 0.06451881 0.08497041 -0.18190421 -0.06099828
225 -0.06701028 0.10468729 0.144134 -0.08049511 -0.25247464 -0.08180186 -0.19831318 -0.06394332 0.16861549 0.051981486 -0.15868053 -0.3101049 -0.16463576 -0.17264414 0.061995734 0.10980294 -0.17589891 0.12955236 0.07321557 -0.14984928 -0.07843923 -0.072549336 0.021481711 -0.1247465 0.027861673 -0.11480818 -0.40659067 0.012508305 0.062564254 0.018830828 0.100954495 0.061360788 0.18376832 0.12827873 0.2705399 -0.0052269925 -0.042431813 0.13955727 -0.23483874 -0.120807745 -0.098521054 -0.06250345 0.08659831 -0.07620454 -0.14290102 -0.22175662 0.192152 0.045658324 -0.010187867 -0.07386875 0.07642628 0.17938398 0.011942209 -0.044376917 0.12539066 -0.012365439 -0.3522802 0.2523744 0.18642429 -0.1858445 0.25921035 -0.08238444 -0.054884616 0.3538535 -0.08189969 -0.051683012 -0.1895256 0.05486136 -0.101183146 0.24273823 -0.064839415 -0.041098595 0.056055423 -0.051814478 0.14147371 0.19362688 0.18524525 0.1611888 -0.19416498 -0.07907534 0.09294298 0.2869137 -0.10149204 -0.008217617 -0.23557656 -0.028205061 -0.07137941 0.06523087 0.14688483 0.106512435 0.08712987 0.16853052 -0.028339049 -0.2011639 -0.19995038 -0.113141865 0.2113707 -0.2998215 0.05571951 -0.15988083 -0.007717113 0.18216923 -0.15221187 0.046376172 0.20859924 0.12318772 -0.059199993 0.0014480349 -0.22456731 -0.028526884 0.06809418 -0.14908785 -0.2390004 -0.016606284 0.16184579 -0.10165861 0.09855469 0.15795504 0.09653762 0.07223953 0.050703876 0.16242594 0.05520189 -0.1483995 0.29856026 0.028756835 -0.16744052 -0.05298605
292 -0.03413934 -0.42465207 0.12077988 0.0101877535 -0.04426634 -0.19342399 -0.20905642 0.07030625 0.21256319 0.33960918 0.09854327 0.44490516 -0.15934418 -0.13875045 -0.04539272 0.24204728 0.050113123 0.4074028 -0.14526418 -0.04343934 0.37967443 0.040758766 -0.035195734 -0.14303964 0.26733318 -0.48675382 0.05543814 -0.26782703 0.02913091 0.23529042 -0.12752151 0.15845923 0.17424001 -0.053894002 -0.0024337284 0.01094072 -0.12216907 0.112219594 -0.035493866 -0.2205021 -0.25379077 0.012754003 -0.059570316 0.37783355 -0.052671332 0.10607021 -0.0009584564 -0.14166714 -0.28900567 -0.203402 -0.02999888 0.056331873 0.30912328 -0.14896883 0.12063644 0.13754605 -0.0061641866 -0.05531428 0.19018717 -0.4131057 -0.08284874 0.23734215 -0.061081693 0.45352724 0.0068183527 -0.08336967 -0.25238308 0.030417727 0.24061975 -0.18002804 -0.32168776 0.1959066 -0.15802976 -0.028498668 0.19300617 0.23822238 -0.10392667 -0.070143566 -0.061596997 -0.19166814 -0.06010527 0.40707687 0.14516063 -0.1599854 -0.24001601 0.27348194 -0.14417505 -0.005414597 -0.16884533 -0.2487485 -0.04533026 -0.15151761 0.25575045 0.28026864 0.16742265 0.09222745 -0.084654555 0.030819219 0.01743395 0.03725385 -0.44018218 0.3788079 -0.012072286 0.16965397 -0.045869127 -0.20376424 0.17214715 0.094558455 -0.25773072 0.2083378 -0.13828367 -0.3920479 -0.053760123 -0.17069301 0.22360618 0.28693268 0.19549933 0.3174741 -0.06256383 0.0075278403 -0.07322028 -0.061793637 0.2385974 0.11033685 0.35544312 0.33089942 -0.4053403 -0.13568524
109 0.05463233 0.16094781 -0.19756554 0.27143142 0.11847894 -0.05006562 0.13976613 -0.013063209 0.11530726 -0.19435012 -0.043917134 -0.003520586 0.07589742 -0.08220193 0.13336729 -0.044197485 -0.21977577 -0.07159244 -0.11999571 -0.061934043 0.04619319 -0.19106607 0.015422784 0.21753535 0.18882719 -0.17234717 0.21313015 -0.09777534 -0.052224062 0.12713666 0.1523054 -0.034219798 -0.14240295 0.16661245 0.28831524 0.030636594 0.09123905 0.04012868 -0.03913804 0.10608561 -0.16547453 -0.1496817 -0.24579193 0.21979426 -0.1462974 -0.13348435 0.15030216 0.12217067 0.02216391 0.08961951 0.11010989 -0.14597997 0.16536322 0.14633076 -0.07903491 0.014968409 -0.15795521 0.19785094 -0.105288304 -0.11911459 0.13943517 -0.20739718 0.17628357 -0.09119368 0.27803296 0.058299094 -0.22956593 0.11729575 -0.21359508 0.30663744 -0.0063775037 0.09863634 0.102374636 0.22120707 -0.08220064 0.16782483 0.008979165 0.028706968 0.11668682 0.07858709 -0.06153537 0.40460396 0.09824619 -0.16765246 0.025673978 0.16509332 -0.0076258807 0.030722568 -0.1446829 -0.011198482 -0.010226964 -0.018182361 -0.013321755 0.020834476 0.04232534 0.0974476 -0.029647993 -0.06034628 0.020183861 -0.3251289 -0.026019465 0.34456706 0.12020489 0.19543856 0.030447172 0.067282096 0.07593995 -0.07277295 0.04381163 -0.038158257 -0.10569126 -0.08932034 -0.049584974 -0.020454679 0.146847 0.35478818 0.2936245 -0.11989507 -0.0454443 0.16154294 -0.02784026 0.09001312 0.09500957 0.118653566 0.045190267 0.07858274 -0.017874392 -0.025787393
414 0.094622016 -0.06944302 -0.24913168 0.19582003 -0.17216139 -0.06671011 -0.07477747 0.12573376 0.009360785 -0.38724557 -0.22290753 -0.033399917 -0.241787 0.2031219 -0.02100625 -0.19037046 -0.13237724 -0.31536284 -0.24677274 -0.12823066 0.11796522 -0.23722482 -0.1671488 -0.32607767 -0.15972368 -0.19933963 -0.100747555 -0.03345779 -0.30687654 0.083622925 0.09603299 -0.020065092 -0.09320664 0.21607327 -0.17215008 0.28138244 -0.31480664 0.44552317 -0.032429066 -0.018238977 0.24414295 -0.36139095 -0.086687006 0.07362466 -0.0810627 0.051327523 -0.0010732508 -0.0010326912 -0.482469 0.21130618 -0.55863875 0.16139792 -0.22014517 -0.14285903 0.030921903 0.22224288 -0.10840494 -0.16768625 0.25446433 0.04839784 0.22934137 -0.1105915 -0.3266617 0.4501061 0.08123598 0.39493555 -0.12345471 0.3449758 -0.36958215 0.32868743 -0.22836737 0.06886897 -0.21658237 0.207503 0.05453542 0.020927029 0.119337924 0.09224344 -0.33086762 0.12156463 0.26317334 -0.2500891 -0.2900142 0.05256436 -0.24641106 -0.35606652 -0.0020496757 -0.026674034 -0.043039627 -0.28442857 0.28741148 -0.27079096 -0.2112422 -0.11015287 -0.031135041 0.2250929 -0.026185742 0.20774707 -0.20373909 -0.10070101 -0.30402592 -0.27298972 -0.19610749 -0.23074773 -0.030638125 0.300742 -0.14419629 -0.105771154 -0.09007221 -0.083957806 0.0061925855 -0.23257837 0.03865224 -0.0015537989 0.10431291 0.3806426 0.14209542 0.017652057 0.061348308 0.35507596 -0.07336433 -0.055120453 0.043978184 -0.09053865 -0.02467983 0.40205652 -0.13618782 -0.20034881
